
\data\
ngram 1=3334
ngram 2=16685
ngram 3=23184
ngram 4=12879
ngram 5=2960
ngram 6=1016
ngram 7=129

\1-grams:
-99	<s>	-0.7129388
-0.7629351	</s>
-3.377228	破}p|o4	-0.3080134
-3.523356	坏}h|uai4	-0.5632859
-3.180933	装}zh|ua1|ng	-0.3080134
-3.745205	箱}x|ia1|ng	-0.5632859
-2.943573	报}b|ao4	-0.3871946
-4.222326	有|没}iou3	-0.08616463
-4.222326	有}m|ei2|iou4	-0.08616462
-3.319236	居}j|v1	-0.4663759
-2.759928	民}m|i2|n	-0.3427755
-3.745205	追}d|uei1	-0.1373172
-3.921296	逐}zh|u2	-0.1653459
-3.620266	坚}j|ia1|n	-0.1653459
-3.921296	挺}t|i3|ng	-0.2622559
-3.523356	烧}sh|ao1	-0.5632859
-3.620266	饭}f|a4|n	-0.2902846
-3.745205	承}ch|e2|ng	-0.1830747
-3.620266	诺}n|uo4	-0.6882246
-4.222326	青}q|i1|ng	-0.08616463
-2.717176	年}n|ia2|n	-0.504308
-3.620266	欢}h|ua1|n	-0.1909
-3.921296	呼}h|u1	-0.1653459
-3.921296	沧}c|a1|ng	-0.08616463
-3.046235	州}zh|ou1	-0.7094138
-3.222326	顾}g|u4	-0.362371
-3.444175	虑}l|v4	-0.6302327
-3.523356	戴}d|ai4	-0.3292027
-3.444175	维}uei2	-0.200108
-2.790963	斯}s|ii1	-0.4451865
-2.991877	交}j|iao1	-0.2769791
-4.222326	椅}i1	-0.08616462
-3.921296	股}g|u3	-0.1531114
-2.807353	市}sh|ii4	-0.6882245
-2.879903	品}p|i3|n	-0.5361336
-3.143145	种}zh|o3|ng	-0.7229868
-4.222326	凹}ao1	-0.08616463
-3.921296	凸}t|u2	-0.08616462
-2.514756	不}b|u4	-0.2121461
-3.108383	平}p|i2|ng	-0.3028738
-2.759928	重}zh|o4|ng	-0.3351656
-3.143145	型}x|i2|ng	-0.899078
-3.523356	伦}l|ue2|n	-0.08616462
-3.745205	敦}d|ue1|n	-0.3080134
-3.921296	迎}i2|ng	-0.08616463
-3.268084	接}j|ie1	-0.2622559
-3.180933	受}sh|ou4	-0.3524325
-2.967054	过}g|uo4	-0.3119436
-4.222326	绢}j|va4|n	-0.08616462
-4.222326	遣}q|ia3|n	-0.08616462
-3.620266	返}f|a3|n	-0.4841046
-2.860598	同}t|o2|ng	-0.3316773
-3.620266	胞}b|ao1	-0.6882246
-2.717176	区}q|v1	-0.8208502
-2.967054	委}uei3	-0.6697412
-3.268084	土}t|u3	-0.3360421
-2.921296	气}q|i4	-0.3742296
-2.900107	后}h|ou4	-0.5121333
-2.991877	代}d|ai4	-0.4152233
-2.775168	方}f|a1|ng	-0.5063809
-2.569114	法}f|a3	-0.4597453
-3.076198	可}k|e3	-0.2322927
-3.620266	靠}k|ao4	-0.2902846
-2.335836	性}x|i4|ng	-1.221827
-2.807353	明}m|i2|ng	-0.362371
-3.620266	亮}l|ia4|ng	-0.6882246
-2.377228	出}ch|u1	-0.5254973
-2.879903	色}s|e4	-0.7674058
-3.268084	连}l|ia2|n	-0.285737
-2.900107	西}x|i1	-0.2503567
-3.377228	银}i2|n	-0.3871946
-2.860598	战}zh|a4|n	-0.3687112
-3.444175	略}l|ve4	-0.4383471
-2.991877	门}m|e2|n	-0.4024345
-2.588858	子}z|ii3	-0.7674059
-3.620266	适}sh|ii4	-0.1830747
-3.745205	龄}l|i2|ng	-0.5632859
-3.620266	并}b|i4|ng	-0.1733148
-2.53213	行}x|i2|ng	-0.4597454
-3.076198	不}b|u2	-0.1830746
-3.921296	悖}b|ei4	-0.3871946
-3.921296	邀}iao1	-0.2622559
-3.745205	请}q|i3|ng	-0.3871946
-2.745205	理}l|i3	-0.3796414
-3.319236	应}i1|ng	-0.285737
-4.222326	忘}ua4|ng	-0.08616463
-3.319236	记}j|i4	-0.3871946
-2.879903	发}f|a1	-0.2824592
-2.860598	言}ia2|n	-0.5361336
-2.690847	权}q|va2|n	-0.7551714
-3.745205	专}zh|ua1|n	-0.1209267
-2.550228	业}ie4	-0.5692763
-2.900107	公}g|o1|ng	-0.238026
-3.620266	司}s|ii1	-0.2622559
-3.180933	图}t|u2	-0.3339491
-2.921296	书}sh|u1	-0.5632858
-2.703812	一}i1	-0.2404871
-3.745205	直}zh|ii2	-0.1183493
-3.921296	绵}m|ia2|n	-0.08616464
-3.143145	阳}ia2|ng	-0.598048
-3.377228	派}p|ai4	-0.4841047
-3.143145	别}b|ie2	-0.4083839
-2.921296	局}j|v2	-0.7059533
-3.377228	增}z|e1|ng	-0.1733148
-2.730964	量}l|ia4|ng	-0.7725454
-4.222326	尺}ch|ii3	-0.08616462
-2.730964	度}d|u4	-0.7512763
-2.991877	拉}l|a1	-0.3134084
-4.222326	丁}d|i1|ng	-0.08616462
-3.076198	美}m|ei3	-0.3000445
-3.268084	洲}zh|ou1	-0.5632859
-3.143145	台}t|ai2	-0.4106757
-4.222326	抢}ch|e1|ng	-0.08616463
-3.921296	占}zh|a4|n	-0.1441566
-2.900107	团}t|ua2|n	-0.7059533
-3.076198	结}j|ie2	-0.3028738
-3.745205	阿}a1	-0.1441566
-3.921296	递}d|i4	-0.1653459
-3.018206	给}g|ei3	-1.015583
-3.921296	申}sh|e1|n	-0.1830746
-3.444175	请}j|i4|ng	-0.3414372
-3.523356	确}q|ve4	-0.2622559
-3.108383	保}b|ao3	-0.2685048
-3.444175	配}p|ei4	-0.2780502
-3.222326	置}zh|ii4	-0.4663759
-3.523356	绝}j|ve2	-0.3080134
-3.523356	超}ch|ao1	-0.2622559
-3.921296	做}z|uo4	-0.2111034
-3.222326	酒}j|iu3	-0.4451866
-3.523356	泉}q|va2|n	-0.5632859
-3.921296	泥}n|i2	-0.08616462
-3.523356	沙}sh|a1	-0.1275573
-3.620266	服}f|u2	-0.3080134
-3.377228	从}c|o2|ng	-0.1981384
-4.222326	旅}l|v3	-0.08616463
-3.268084	客}k|e4	-0.362371
-3.921296	筹}ch|ou2	-0.1239532
-3.018206	办}b|a4|n	-0.5121333
-2.967054	击}j|i1	-0.7094138
-4.222326	碎}s|uei4	-0.08616462
-2.690847	制}zh|ii4	-0.4647995
-2.642542	时}sh|ii2	-0.5632859
-2.991877	而}e2|r	-0.2799847
-3.620266	尽}j|i4|n	-0.2244673
-3.222326	职}zh|ii2	-0.4135236
-3.222326	无}u2	-0.1189571
-2.197021	人}r|e2|n	-0.7661112
-2.991877	开}k|ai1	-0.2193759
-3.745205	幕}m|u4	-0.2622559
-3.018206	式}sh|ii4	-0.9892545
-3.523356	质}zh|ii4	-0.4541414
-3.268084	列}l|ie4	-0.2622559
-4.222326	削}x|ve1	-0.08616462
-3.377228	弱}r|uo4	-0.5632859
-3.108383	功}g|o1|ng	-0.3292027
-2.666024	动}d|o4|ng	-0.4261127
-3.046235	长}ch|a2|ng	-0.1937985
-3.745205	孙}s|ue4|n	-0.3871946
-3.620266	登}d|e1|ng	-0.2622559
-2.53213	机}j|i1	-0.5698168
-4.222326	焰}ia4|n	-0.08616462
-3.268084	潮}ch|ao2	-0.5632859
-3.745205	涌}io3|ng	-0.2322927
-2.991877	队}d|uei4	-0.8877969
-3.745205	伍}u3	-0.5632859
-3.222326	特}t|e4	-0.2026702
-3.108383	约}ve1	-0.4963391
-3.046235	建}j|ia4|n	-0.3470774
-3.268084	设}sh|e4	-0.2536557
-2.991877	省}sh|e3|ng	-0.4346192
-2.745205	政}zh|e4|ng	-0.4182288
-3.319236	府}f|u3	-0.6090434
-4.222326	摧}c|uei1	-0.08616462
-3.745205	毁}h|uei3	-0.3871946
-3.523356	庆}q|i4|ng	-0.3871946
-3.745205	祝}zh|u4	-0.2622559
-4.222326	这}zh|ei4	-0.08616462
-3.180933	类}l|ei4	-0.7229868
-3.921296	黑}h|ei1	-0.1319221
-2.967054	电}d|ia4|n	-0.349406
-3.377228	想}x|ia3|ng	-0.2902846
-3.180933	象}x|ia4|ng	-0.6882246
-3.222326	致}zh|ii4	-0.2732513
-3.620266	默}m|o4	-0.1531114
-3.268084	闻}ue4|n	-0.4663759
-3.523356	编}b|ia1|n	-0.2622559
-3.268084	码}m|a3	-0.7851346
-2.921296	要}iao4	-0.5632858
-3.180933	素}s|u4	-0.5632859
-3.222326	共}g|o4|ng	-0.1830747
-2.991877	管}g|ua3|n	-0.5121334
-3.018206	花}h|ua1	-0.3292027
-3.377228	让}r|a4|ng	-0.4841047
-2.879903	位}uei4	-0.5980479
-3.523356	私}s|ii1	-0.2111034
-2.569114	有}iou3	-0.3591659
-3.143145	边}b|ia1|n	-0.5384623
-3.377228	境}j|i4|ng	-0.3292027
-3.076198	害}h|ai4	-0.6659482
-2.745205	者}zh|e3	-1.276496
-3.523356	修}x|iu1	-0.2322927
-2.790963	军}j|v1|n	-0.3787614
-2.631261	事}sh|ii4	-0.393185
-2.678258	学}x|ve2	-0.4120182
-3.444175	校}x|iao4	-0.3871946
-2.678258	中}zh|o1|ng	-0.2764963
-3.046235	正}zh|e4|ng	-0.403585
-3.076198	当}d|a1|ng	-0.2807393
-4.222326	禾}h|e2	-0.08616462
-3.377228	极}j|i2	-0.2187902
-4.222326	浅}q|ia3|n	-0.08616462
-3.444175	订}d|i4|ng	-0.4541414
-4.222326	擅}sh|a4|n	-0.08616462
-2.790963	入}r|u4	-0.9465026
-2.900107	多}d|uo1	-0.321693
-3.222326	种}zh|o4|ng	-0.4171579
-2.879903	经}j|i1|ng	-0.4383471
-3.143145	营}i2|ng	-0.4135236
-3.046235	望}ua4|ng	-0.9612258
-2.921296	能}n|e2|ng	-0.4841046
-2.416146	力}l|i4	-0.7512764
-3.620266	分}f|e4|n	-0.4841046
-4.222326	跨}k|ua4	-0.08616462
-2.436996	国}g|uo2	-0.44107
-3.745205	熟}sh|ou2	-0.1953091
-3.108383	知}zh|ii1	-0.3871946
-3.620266	模}m|o2	-0.1830747
-3.921296	仿}f|a3|ng	-0.2111034
-3.319236	迹}j|i1	-0.7393771
-2.900107	期}q|i1	-0.5632858
-3.921296	巨}j|v4	-0.1830746
-3.620266	额}e2	-0.6882246
-3.222326	失}sh|ii1	-0.362371
-2.991877	去}q|v4	-0.6882245
-4.222326	尴}g|a1	-0.08616463
-4.222326	尬}n|g|a4	-0.08616462
-4.222326	秦}q|i2|n	-0.08616462
-3.921296	矿}k|ua4|ng	-0.2111034
-3.319236	规}g|uei1	-0.2622559
-3.319236	格}g|e2	-0.4219567
-4.222326	梦}m|e4|ng	-0.08616461
-4.222326	寐}m|ei4	-0.08616463
-2.900107	以}i3	-0.2922191
-3.076198	求}q|iu2	-0.4064997
-3.620266	谢}x|ie4	-0.2902846
-3.180933	争}zh|e1|ng	-0.2944406
-2.967054	议}i4	-0.4152233
-3.620266	医}i1	-0.200108
-3.319236	卫}uei4	-0.4219567
-2.620266	生}sh|e1|ng	-0.4208777
-3.268084	标}b|iao1	-0.3414371
-3.319236	准}zh|ue3|n	-0.3871946
-3.018206	计}j|i4	-0.4663759
-3.046235	新}x|i1|n	-0.2233378
-3.180933	兴}x|i1|ng	-0.3292027
-3.444175	满}m|a3|n	-0.3494061
-2.690847	意}i4	-0.4841046
-3.523356	博}b|o2	-0.3080134
-2.943573	士}sh|ii4	-0.7094138
-3.620266	选}x|va4|n	-0.1209267
-3.745205	拔}b|a2	-0.2622559
-2.775168	天}t|ia1|n	-0.2970179
-3.620266	津}j|i1|n	-0.2622559
-4.222326	柴}ch|ai2	-0.08616462
-3.076198	油}iou2	-0.3871946
-3.745205	远}va4|n	-0.08616463
-3.180933	离}l|i2	-0.5632859
-3.921296	尊}z|ue1|n	-0.1653459
-3.620266	笑}x|iao4	-0.1953091
-3.921296	眯}m|i1	-0.08616462
-3.046235	见}j|ia4|n	-0.3028738
-4.222326	萌}m	-0.08616463
-4.222326	芽}e2|ng|ia2	-0.08616462
-3.620266	封}f|e1|ng	-0.2902846
-2.807353	口}k|ou3	-0.6882245
-3.319236	章}zh|a1|ng	-0.6090434
-3.523356	抗}k|a4|ng	-0.2111034
-3.222326	原}va2|n	-0.2902846
-3.180933	乱}l|ua4|n	-0.5632859
-3.377228	露}l|u4	-0.5121333
-3.319236	出}ch|u5	-0.6882247
-3.523356	来}l|ai5	-0.7851347
-3.319236	协}x|ie2	-0.2622559
-3.745205	再}z|ai4	-0.1733148
-3.076198	及}j|i2	-0.5632859
-3.921296	帮}b|a1|ng	-0.1653459
-2.807353	手}sh|ou3	-0.4618282
-2.559568	化}h|ua4	-0.7108886
-2.588858	工}g|o1|ng	-0.6334858
-3.180933	容}r|o2|ng	-0.4383472
-3.444175	疑}i2	-0.4541414
-4.222326	遭}z|ao1	-0.08616462
-3.921296	翻}f|a1|n	-0.1441566
-3.268084	爱}ai4	-0.3080134
-2.759928	尔}e3|r	-0.4451865
-3.180933	兰}l|a2|n	-0.4171579
-3.143145	果}g|uo3	-0.4963391
-3.444175	树}sh|u4	-0.3871946
-3.444175	友}iou3	-0.3494061
-3.319236	志}zh|ii4	-0.4285874
-3.921296	峰}f|e1|ng	-0.3871946
-3.018206	备}b|ei4	-0.4478924
-2.559568	下}x|ia4	-0.7771657
-4.222326	家}g|u1	-0.08616462
-3.444175	庭}t|i2|ng	-0.5121333
-2.824386	实}sh|ii2	-0.3649182
-3.319236	起}q|i5	-0.9892546
-3.620266	故}g|u4	-0.1953091
-3.523356	宫}g|o1|ng	-0.5632859
-2.759928	物}u4	-0.5520049
-3.046235	院}va4|n	-0.7393771
-3.180933	科}k|e1	-0.2622559
-3.921296	柱}zh|u4	-0.3871946
-2.991877	安}a1|n	-0.2792893
-2.775168	员}va2|n	-0.8265272
-3.018206	流}l|iu2	-0.3591659
-4.222326	狂}k|ua2|ng	-0.08616464
-3.745205	停}t|i2|ng	-0.1483125
-3.143145	止}zh|ii3	-0.7551714
-3.319236	么}m|e5	-0.5121333
-3.108383	步}b|u4	-0.5198202
-3.018206	兵}b|i1|ng	-0.6090433
-4.222326	弘}h|o2|ng	-0.08616462
-4.222326	彭}p|e2|ng	-0.08616462
-4.222326	希}x|i1	-0.08616462
-3.921296	仅}j|i3|n	-0.2111034
-3.046235	次}c|ii4	-0.6090433
-2.730964	于}v2	-0.9057085
-2.745205	定}d|i4|ng	-0.4404401
-3.222326	持}ch|ii2	-0.345802
-3.745205	枪}q|ia1|ng	-0.1830747
-3.018206	信}x|i4|n	-0.3591658
-3.319236	誉}v2	-0.9892546
-4.222326	泳}io3|ng	-0.08616462
-4.222326	谭}t|a2|n	-0.08616462
-3.921296	宣}x|va1|n	-0.1319221
-3.319236	告}g|ao4	-0.3166136
-2.642542	成}ch|e2|ng	-0.4471925
-2.842115	立}l|i4	-0.432952
-4.222326	麻}m|a2	-0.08616462
-4.222326	烦}f|a5|n	-0.08616462
-3.921296	炎}ia2|n	-0.2622559
-3.921296	黄}h|ua2|ng	-0.08616462
-3.921296	被}b|ei4	-0.1531114
-3.319236	压}ia1	-0.3494061
-3.523356	迫}p|o4	-0.4541414
-3.620266	硬}i4|ng	-0.2622559
-3.620266	盘}p|a2|n	-0.3871946
-3.921296	右}iou4	-0.08616461
-3.745205	翼}i4	-0.5632859
-4.222326	硎}x|i2|ng	-0.08616462
-3.921296	综}z|o4|ng	-0.08616464
-2.489932	上}sh|a4|ng	-0.6821504
-2.860598	所}s|uo3	-0.3042204
-3.222326	述}sh|u4	-0.8265274
-4.222326	凶}x|io1|ng	-0.08616462
-3.268084	决}j|ve2	-0.2944406
-3.745205	瓜}g|ua1	-0.3080134
-3.377228	表}b|iao3	-0.1876223
-3.143145	现}x|ia4|n	-0.3181137
-4.222326	搞}g|ao3	-0.08616462
-2.879903	好}h|ao3	-0.4135235
-3.620266	猪}zh|u1	-0.4841046
-3.620266	肉}r|ou4	-0.3080134
-3.268084	相}x|ia1|ng	-0.1441566
-2.860598	得}d|e2	-0.3767291
-3.180933	益}i2	-0.4219567
-3.745205	彰}zh|a1|ng	-0.5632859
-3.444175	读}d|u2	-0.3871946
-3.921296	灵}l|i2|ng	-0.2622559
-2.943573	德}d|e2	-0.5448024
-3.523356	始}sh|ii3	-0.3871946
-3.523356	终}zh|o1|ng	-0.1909
-3.921296	伊}i1	-0.08616463
-3.745205	壁}b|i3	-0.08616462
-3.523356	画}h|ua4	-0.2902846
-4.222326	各}g|e4	-0.08616463
-3.046235	级}j|i2	-0.4743447
-3.076198	党}d|a3|ng	-0.3734063
-3.745205	汇}h|uei4	-0.1733148
-3.444175	聚}j|v4	-0.2622559
-4.222326	挖}ua2	-0.08616463
-3.921296	吸}x|i1	-0.1373172
-3.444175	引}i3|n	-0.2374323
-3.620266	该}g|ai1	-0.4841046
-3.444175	班}b|a1|n	-0.2824593
-4.222326	禅}ch|a2|n	-0.08616462
-2.458898	大}d|a4	-0.3586392
-3.319236	都}d|u1	-0.4383472
-3.018206	高}g|ao1	-0.1953091
-2.879903	日}r|ii4	-0.3339491
-3.377228	续}x|v4	-0.5632859
-4.222326	娶}q|v4	-0.08616462
-3.745205	妻}q|i1	-0.2622559
-3.222326	基}j|i1	-0.252496
-3.018206	本}b|e3|n	-0.4193792
-3.921296	微}uei2	-0.08616462
-3.620266	波}b|o1	-0.1275573
-4.222326	炉}l|u2	-0.08616462
-3.523356	补}b|u3	-0.2622559
-3.745205	贴}t|ie1	-0.3871946
-4.222326	按}a4|n	-0.08616463
-3.076198	收}sh|ou1	-0.2622559
-3.745205	完}ua2|n	-0.1830747
-3.444175	整}zh|e3|ng	-0.297018
-4.222326	蛀}zh|u4	-0.08616462
-3.745205	鉴}j|ia4|n	-0.3871946
-3.319236	底}d|i4	-0.3871946
-4.222326	渠}q|v2	-0.08616461
-3.143145	密}m|i4	-0.3494061
-3.046235	布}b|u4	-0.4541414
-3.921296	虹}g|a4|ng	-0.08616462
-3.319236	彩}c|ai3	-0.4841047
-4.222326	兴}x|i4|ng	-0.08616462
-3.046235	如}r|u2	-0.2706891
-3.921296	蚕}c|a2|n	-0.1830746
-3.523356	桑}s|a1|ng	-0.2622559
-3.620266	礼}l|i3	-0.2111034
-4.222326	既}j|i4	-0.08616462
-2.678258	是}sh|ii4	-0.8431266
-3.222326	态}t|ai4	-0.4541414
-2.967054	势}sh|ii4	-0.4936499
-4.222326	厨}ch|u2	-0.08616462
-3.018206	分}f|e1|n	-0.1965771
-3.444175	田}t|ia2|n	-0.3871946
-2.967054	通}t|o1|ng	-0.252496
-3.745205	甘}g|a1|n	-0.2111034
-3.745205	肃}s|u4	-0.2622559
-3.076198	南}n|a2|n	-0.3372206
-3.444175	具}j|v4	-0.4383471
-2.842115	体}t|i3	-0.4541414
-3.222326	带}d|ai4	-0.2622559
-2.860598	路}l|u4	-0.5254972
-3.444175	今}j|i1|n	-0.3202478
-3.921296	昔}c|uo4	-0.08616462
-3.745205	浩}h|ao4	-0.2111034
-3.620266	习}x|i2	-0.2902846
-3.018206	解}j|ie3	-0.4219567
-3.620266	炼}l|ia4|n	-0.4841046
-4.222326	喘}ch|ua3|n	-0.08616462
-2.879903	商}sh|a1|ng	-0.4219567
-3.180933	社}sh|e4	-0.4451866
-3.222326	税}sh|uei4	-0.4451866
-3.523356	卡}k|a3	-0.2902846
-2.842115	车}ch|e1	-0.5888399
-4.222326	吻}ue3|n	-0.08616462
-2.991877	在}z|ai4	-0.3749601
-3.921296	毫}h|ao2	-0.2111034
-4.222326	圈}q|va1|n	-0.08616462
-4.222326	给}j|i3	-0.08616462
-3.745205	予}v3	-0.3871946
-4.222326	夜}ie4	-0.08616462
-3.620266	总}z|o3|ng	-0.1531114
-2.489932	会}h|uei4	-0.5058844
-3.444175	状}zh|ua4|ng	-0.4383472
-3.523356	智}zh|ii4	-0.3871946
-2.588858	利}l|i4	-0.4952888
-4.222326	签}q|ia1|n	-0.08616462
-3.620266	移}i2	-0.1733148
-4.222326	投}t|ou2	-0.08616463
-2.900107	案}a4|n	-0.8643158
-2.703812	水}sh|uei3	-0.3742296
-3.377228	乡}x|ia1|ng	-0.3871946
-3.921296	斤}j|i1|n	-0.3871946
-4.222326	混}h|ue4|n	-0.08616462
-3.523356	采}c|ai3	-0.200108
-3.180933	东}d|o1|ng	-0.2458655
-3.921296	娼}ch|a1|ng	-0.3871946
-3.921296	荐}j|ia4|n	-0.3871946
-4.222326	吗}m|a5	-0.08616462
-4.222326	怎}z|e3|n	-0.08616463
-3.108383	样}ia4|ng	-0.7851346
-3.921296	泰}t|ai4	-0.08616462
-3.921296	澎}p|e1|ng	-0.08616462
-3.523356	湖}h|u2	-0.2244673
-3.377228	县}x|ia4|n	-0.4285874
-3.222326	费}f|ei4	-0.4171578
-3.620266	走}z|ou3	-0.1344693
-3.180933	源}va2|n	-0.5121334
-3.319236	速}s|u4	-0.6090434
-3.444175	静}j|i4|ng	-0.4383471
-3.076198	观}g|ua1|n	-0.4249831
-2.703812	主}zh|u3	-0.3937254
-2.620266	家}j|ia1	-0.5717191
-3.745205	亿}i4	-0.2622559
-2.967054	待}d|ai4	-0.6424671
-3.620266	其}q|i2	-0.1953091
-3.523356	陆}l|u4	-0.2322927
-3.620266	由}iou2	-0.2111034
-4.222326	碗}ua3|n	-0.08616462
-3.921296	享}x|ia3|ng	-0.1830746
-4.222326	勾}g|ou1	-0.08616462
-3.377228	际}j|i4	-0.2410666
-3.745205	两}l|ia3|ng	-0.108441
-3.921296	页}ie4	-0.3871946
-3.444175	邻}l|i2|n	-0.3202478
-2.943573	里}l|i3	-0.5632858
-3.620266	术}sh|u4	-0.2410666
-4.222326	氧}ia3|ng	-0.08616463
-3.620266	铁}t|ie3	-0.2111034
-3.222326	众}zh|o4|ng	-0.2509749
-3.523356	座}z|uo4	-0.7851347
-3.319236	散}s|a4|n	-0.3871946
-4.222326	玻}b|o1	-0.08616463
-4.222326	璃}l|i2	-0.08616462
-3.523356	反}f|a3|n	-0.1498337
-3.921296	串}ch|ua4|n	-0.3871946
-3.377228	们}m|e5|n	-0.6882246
-4.222326	赢}i2|ng	-0.08616462
-3.921296	遗}s|uei2	-0.08616462
-2.842115	产}ch|a3|n	-0.3969544
-3.620266	漠}m|o4	-0.6882246
-3.620266	打}d|a3	-0.2244673
-3.745205	苏}s|u1	-0.1830747
-3.268084	贵}g|uei4	-0.3080134
-2.921296	达}d|a2	-0.5175283
-4.222326	允}v3|n	-0.08616462
-3.620266	许}x|v3	-0.4841046
-3.377228	深}sh|e1|n	-0.1599508
-3.180933	思}s|ai1	-0.3623711
-3.620266	注}zh|u4	-0.1483125
-2.991877	销}x|iao1	-0.6504359
-3.268084	命}m|i4|ng	-0.3235256
-3.222326	题}t|i2	-0.6882246
-3.444175	古}g|u3	-0.1953091
-3.046235	城}ch|e2|ng	-0.5254973
-2.451474	到}d|ao4	-0.8047301
-3.444175	了}l|e5	-0.8643159
-3.018206	内}n|ei4	-0.2622559
-3.143145	自}z|ii4	-0.1622548
-3.444175	植}zh|ii2	-0.3871946
-3.745205	触}ch|u4	-0.2322927
-3.268084	犯}f|a4|n	-0.6504361
-2.943573	任}r|e4|n	-0.3871946
-2.678258	为}uei4	-0.4882212
-3.377228	老}l|ao3	-0.1981384
-4.222326	逃}t|ao2	-0.08616462
-3.620266	避}b|i4	-0.2111034
-3.523356	桌}zh|uo1	-0.4841046
-4.222326	库}sh|e4	-0.08616462
-4.222326	靶}b|a3	-0.08616462
-3.921296	箭}j|ia4|n	-0.3871946
-3.745205	退}t|uei4	-0.1587153
-3.921296	恢}h|uei1	-0.08616462
-3.222326	复}f|u4	-0.3292027
-3.620266	拟}n|i3	-0.3292027
-3.444175	术}zh|u2	-0.3871946
-3.444175	应}i4|ng	-0.4541414
-3.745205	预}v4	-0.1109882
-3.319236	谋}m|ou2	-0.2824593
-2.759928	山}sh|a1|n	-0.5285237
-3.620266	指}zh|ii1	-0.1209267
-3.620266	针}zh|e1|n	-0.2322927
-2.396251	地}d|i4	-0.5407785
-2.759928	点}d|ia3|n	-0.7725454
-3.444175	低}d|i1	-0.2274938
-3.377228	星}x|i1|ng	-0.4383471
-3.620266	阶}j|ie1	-0.3292027
-3.523356	各}g|e3	-0.08616462
-3.268084	单}d|a1|n	-0.3080134
-3.745205	识}sh|ii2	-0.2622559
-4.222326	推}t|uei1	-0.08616464
-3.921296	敲}q|iao1	-0.3871946
-3.108383	放}f|a4|ng	-0.2458654
-3.444175	射}sh|e4	-0.3292027
-3.377228	半}b|a4|n	-0.2322927
-2.642542	部}b|u4	-0.7229867
-4.222326	诱}iou4	-0.08616462
-3.268084	领}l|i3|ng	-0.2437725
-3.268084	馆}g|ua3|n	-0.6504361
-3.620266	他}t|a1	-0.1319221
-3.222326	少}sh|ao3	-0.4135236
-3.018206	身}sh|e1|n	-0.4841046
-3.523356	京}j|i1|ng	-0.2622559
-3.620266	冲}ch|o1|ng	-0.1953091
-3.523356	绩}j|i1	-0.7851347
-4.222326	休}x|iu3	-0.08616462
-3.319236	看}k|a4|n	-0.200108
-2.775168	作}z|uo4	-0.4239174
-3.319236	活}h|uo2	-0.285737
-3.620266	跃}ve4	-0.6882246
-4.222326	零}l|ia2|n	-0.08616463
-3.620266	售}sh|ou4	-0.3871946
-4.222326	岩}j|i4	-0.08616462
-3.921296	歉}q|ia4|n	-0.3871946
-3.222326	元}va2|n	-0.5632859
-4.222326	忽}h|u1	-0.08616463
-3.180933	视}sh|ii4	-0.3669912
-3.377228	传}ch|ua2|n	-0.1830746
-3.180933	送}s|o4|ng	-0.4383471
-3.745205	估}g|u1	-0.1830746
-2.943573	文}ue2|n	-0.3756127
-2.967054	和}h|e2	-0.332147
-3.921296	面}m|ia5|n	-0.3871946
-3.377228	认}r|e4|n	-0.2509749
-3.143145	对}d|uei4	-0.2180522
-3.523356	载}z|ai4	-0.2622559
-3.180933	先}x|ia1|n	-0.2902846
-2.991877	进}j|i4|n	-0.3119436
-3.921296	奉}f|e4|ng	-0.1441566
-3.921296	劝}q|va4|n	-0.2111034
-4.222326	可}k|e4	-0.08616462
-3.319236	恶}e4	-0.3550099
-3.046235	运}v4|n	-0.3724714
-3.180933	世}sh|ii4	-0.4106757
-2.860598	界}j|ie4	-0.5913145
-3.921296	供}g|o1|ng	-0.1319221
-3.745205	需}n|uo4	-0.2622559
-2.703812	面}m|ia4|n	-0.6027944
-3.222326	质}zh|ii2	-0.3360421
-2.824386	的}d|i4	-0.6882245
-3.377228	项}x|ia4|ng	-0.5121333
-3.319236	话}h|ua4	-0.3871946
-3.745205	轨}g|uei3	-0.3080134
-3.620266	普}p|u3	-0.1830747
-3.620266	遍}b|ia4|n	-0.1653459
-3.523356	青}j|i1|ng	-0.1830747
-4.222326	睐}l|ai4	-0.08616462
-4.222326	掣}ch|e4	-0.08616461
-4.222326	肘}zh|ou3	-0.08616462
-3.523356	百}b|ai3	-0.1909
-4.222326	姓}x|i4|ng	-0.08616462
-3.745205	映}i4|ng	-0.2622559
-4.222326	番}p|a1|n	-0.08616462
-3.921296	腹}f|u4	-0.2622559
-4.222326	沃}u4	-0.08616462
-3.921296	生}sh|e5|ng	-0.3871946
-4.222326	雅}ia3	-0.08616463
-3.523356	塔}t|a3	-0.2622559
-3.620266	涉}sh|e4	-0.2902846
-3.745205	镜}j|i4|ng	-0.3080134
-3.268084	片}p|ia4|n	-0.5632859
-3.745205	歌}g|e1	-0.08616462
-3.377228	厅}t|i1|ng	-0.6882246
-3.745205	四}s|ii4	-0.08616463
-3.745205	五}u3	-0.1239532
-3.745205	裂}l|ie4	-0.3080134
-3.143145	器}q|i4	-0.5913146
-3.620266	械}j|ie4	-0.4841046
-3.745205	禁}j|i1|n	-0.3080134
-3.377228	系}x|i4	-0.3871946
-3.444175	统}t|o3|ng	-0.2622559
-3.620266	春}ch|ue1|n	-0.2244673
-4.222326	露}l|ou4	-0.08616462
-3.921296	乘}ch|e2|ng	-0.08616463
-2.991877	名}m|i2|ng	-0.401435
-3.921296	墨}m|o4	-0.1830746
-4.222326	仑}l|ue2|n	-0.08616462
-3.620266	伴}b|a4|n	-0.6882246
-3.523356	周}zh|ou1	-0.1653459
-3.745205	刊}k|a1|n	-0.2111034
-4.222326	芹}q|i2|n	-0.08616462
-3.921296	繁}f|a2|n	-0.1441566
-2.588858	心}x|i1|n	-0.4135236
-3.046235	线}x|ia4|n	-0.6659482
-3.620266	王}ua2|ng	-0.2111034
-2.559568	来}l|ai2	-0.5430826
-3.076198	资}z|ii1	-0.3701613
-3.222326	病}b|i4|ng	-0.3871946
-3.108383	率}l|v4	-0.7551715
-3.745205	朗}l|a3|ng	-0.2622559
-3.745205	操}c|ao1	-0.1373172
-3.444175	农}n|o2|ng	-0.1926199
-4.222326	垴}d|a4	-0.08616462
-3.745205	兼}j|ia1|n	-0.1441566
-3.620266	优}iou1	-0.1483126
-3.620266	施}sh|ii1	-0.2410666
-3.523356	与}v2	-0.1830747
-3.921296	误}u4	-0.2111034
-3.523356	弹}d|a4|n	-0.2622559
-3.268084	药}iao4	-0.4663759
-3.745205	横}h|e2|ng	-0.2322927
-3.620266	滨}b|i1|n	-0.4841046
-3.377228	苦}k|u3	-0.2752209
-3.319236	万}ua4|n	-0.2274938
-3.921296	蓬}p|e2|ng	-0.2622559
-3.921296	依}i1	-0.1275573
-4.222326	获}h|uo4	-0.08616462
-3.319236	据}j|v4	-0.3166136
-3.745205	蒙}m|e3|ng	-0.3080134
-3.921296	赫}h|e4	-0.1830746
-2.842115	然}r|a2|n	-0.6454726
-4.222326	你}n|i3	-0.08616463
-3.745205	游}iou2	-0.2322927
-3.921296	戏}x|i4	-0.08616463
-3.620266	广}g|ua3|ng	-0.1441566
-3.523356	播}b|o1	-0.3080134
-3.143145	克}k|e4	-0.270689
-3.222326	展}zh|a3|n	-0.297018
-3.523356	妇}f|u4	-0.4541414
-3.523356	女}n|v3	-0.3414371
-3.523356	烟}ia1|n	-0.4841046
-3.921296	剩}sh|e4|ng	-0.2111034
-3.921296	充}ch|o1|ng	-0.1373172
-2.745205	之}zh|ii1	-0.2141944
-3.620266	历}l|i4	-0.1319221
-3.620266	盟}m|e2|ng	-0.3292027
-3.018206	江}j|ia1|ng	-0.4346192
-3.620266	三}s|a1	-0.08616462
-3.745205	峡}x|ia2	-0.5632859
-3.921296	最}z|uei4	-0.108441
-3.143145	形}x|i2|ng	-0.3235256
-3.377228	快}k|uai4	-0.3871947
-3.745205	捷}j|ie2	-0.3080134
-3.444175	纸}zh|ii3	-0.3871946
-3.620266	币}b|i4	-0.6882246
-3.444175	马}m|a3	-0.1567457
-2.860598	情}q|i2|ng	-0.4907352
-3.523356	划}h|ua4	-0.3871946
-4.222326	涅}n|ie4	-0.08616462
-3.268084	清}q|i1|ng	-0.2263433
-3.076198	风}f|e1|ng	-0.2764963
-3.921296	纽}n|iu3	-0.2111034
-3.620266	排}p|ai2	-0.1704855
-3.745205	热}r|e4	-0.1109882
-3.377228	火}h|uo3	-0.2622559
-3.523356	朝}ch|ao2	-0.2622559
-4.222326	寄}j|i4	-0.08616462
-4.222326	赌}d|u3	-0.08616461
-3.268084	足}z|u2	-0.3550099
-3.921296	奇}q|i2	-0.1653459
-3.180933	调}d|iao4	-0.297018
-4.222326	弓}g|o1|ng	-0.08616462
-3.745205	耻}ch|ii3	-0.2111034
-3.523356	辱}r|u4	-0.7851347
-3.620266	旨}zh|ii3	-0.6882246
-3.921296	扫}s|ao3	-0.1830746
-3.620266	束}sh|u4	-0.4841046
-4.222326	摸}m	-0.08616463
-4.222326	索}o1|s|uo5	-0.08616462
-4.222326	指}zh|ii3	-0.08616463
-3.180933	责}z|e2	-0.4715156
-4.222326	纱}sh|a1	-0.08616462
-4.222326	哪}n|ei3	-0.08616462
-3.523356	个}g|e3	-0.3871946
-3.921296	突}t|u1	-0.1319221
-3.921296	蓄}x|v4	-0.2622559
-3.523356	太}t|ai4	-0.1653459
-3.921296	芦}l|u2	-0.3871946
-3.018206	证}zh|e4|ng	-0.4841046
-4.222326	鼎}d|i3|ng	-0.08616464
-4.222326	尖}j|ia1|n	-0.08616463
-3.745205	锐}r|uei4	-0.3871946
-3.620266	音}i1|n	-0.2111034
-3.108383	令}l|i4|ng	-0.5121334
-4.222326	缸}g|a1|ng	-0.08616462
-3.377228	已}i3	-0.5121333
-3.444175	航}h|a2|ng	-0.3494061
-3.745205	敏}m|i3|n	-0.3080134
-3.745205	症}zh|e4|ng	-0.3080134
-2.790963	务}u4	-0.4306602
-4.222326	樊}f|a2	-0.08616463
-4.222326	篱}n|l|i2	-0.08616462
-3.745205	拿}n|a2	-0.08616463
-4.222326	霍}h|uo4	-0.08616461
-4.222326	厌}ia1	-0.08616462
-4.222326	堡}b|u3	-0.08616462
-3.921296	渔}v2	-0.2622559
-3.745205	刀}d|ao1	-0.5632859
-3.076198	价}j|ia4	-0.8131633
-4.222326	冶}ie3	-0.08616461
-3.143145	金}j|i1|n	-0.2351036
-3.921296	坎}k|a3|n	-0.3871946
-3.319236	愿}va4|n	-0.3871946
-3.921296	顶}d|i3|ng	-0.2111034
-3.921296	彼}b|i3	-0.2622559
-3.921296	廊}l|a2|ng	-0.3871946
-3.921296	酷}k|u4	-0.08616461
-3.444175	怀}h|uai2	-0.3871946
-3.523356	仁}r|e2|n	-0.2622559
-3.108383	堂}t|a2|ng	-0.7851346
-3.523356	杀}sh|a1	-0.3292027
-4.222326	鞭}b|ia1|n	-0.08616462
-3.921296	莫}m|o4	-0.08616462
-3.745205	苗}m|iao2	-0.2622559
-2.690847	头}t|ou2	-0.6504361
-2.921296	关}g|ua1|n	-0.3637135
-3.745205	租}z|u1	-0.2111034
-4.222326	赁}l|i4|n	-0.08616462
-3.745205	违}uei2	-0.1953091
-3.745205	鲜}x|ia1|n	-0.1275573
-3.222326	份}f|e4|n	-0.4451866
-3.745205	互}h|u4	-0.1441566
-3.143145	助}zh|u4	-0.5121334
-3.444175	站}zh|a4|n	-0.5121333
-3.745205	稳}ue3|n	-0.2111034
-3.076198	示}sh|ii4	-0.6424671
-2.921296	场}ch|a3|ng	-0.7674057
-3.620266	店}d|ia4|n	-0.6882246
-4.222326	埋}m|ai2	-0.08616462
-3.444175	藏}c|a2|ng	-0.3080134
-3.745205	毛}m|ao2	-0.1373172
-3.444175	席}x|i2	-0.3871946
-3.620266	径}j|i4|ng	-0.6882246
-2.991877	问}ue4|n	-0.5298622
-4.222326	详}x|ia2|ng	-0.08616463
-3.444175	细}x|i4	-0.1830746
-4.222326	赔}p|ei2	-0.08616462
-3.444175	偿}ch|a2|ng	-0.5121333
-3.377228	联}l|ia2|n	-0.1953091
-2.824386	合}h|e2	-0.3227366
-3.921296	萨}s|a4	-0.08616463
-3.523356	瓦}ua3	-0.1531114
-2.879903	加}j|ia1	-0.2288321
-3.377228	眼}ia3|n	-0.2274938
-3.745205	霉}m|ei2	-0.2622559
-3.180933	常}ch|a2|ng	-0.2706891
-4.222326	庙}m|iao4	-0.08616462
-3.046235	亚}ia4	-0.4936499
-4.222326	员}v4|n	-0.08616462
-3.180933	感}g|a3|n	-0.3080134
-3.046235	集}j|i2	-0.3871946
-3.268084	网}ua3|ng	-0.6504361
-3.377228	必}b|i4	-0.3202478
-3.143145	园}va2|n	-0.7551715
-3.921296	筑}zh|u4	-0.1653459
-3.523356	积}j|i1	-0.2244673
-3.620266	期}q|i2	-0.6882246
-3.745205	舰}j|ia4|n	-0.3871946
-4.222326	吕}l|v3	-0.08616462
-4.222326	缫}s|ao1	-0.08616462
-3.523356	丝}s|ii1	-0.3871946
-3.180933	近}j|i4|n	-0.2824593
-4.222326	丰}f|e1|ng	-0.08616462
-3.377228	富}f|u4	-0.2274938
-4.222326	厄}e4|g|ua1	-0.08616463
-4.222326	瓜|多}d	-0.08616463
-4.222326	尔}uo1|e3|r	-0.08616462
-3.921296	雨}v4	-0.3871946
-3.268084	限}x|ia4|n	-0.4171579
-3.268084	留}l|iu2	-0.3000445
-3.745205	下}x|ia5	-0.5632859
-3.921296	瞩}zh|u3	-0.08616462
-3.180933	目}m|u4	-0.3871947
-3.620266	食}sh|ii2	-0.2902846
-3.745205	雄}x|io2|ng	-0.2322927
-3.620266	辩}b|ia4|n	-0.2322927
-3.377228	值}zh|ii2	-0.4841047
-3.377228	范}f|a4|n	-0.3202478
-3.921296	莲}l|ia2|n	-0.2622559
-3.377228	候}h|ou4	-0.5121333
-3.444175	亲}q|i1|n	-0.2274938
-4.222326	垫}d|ia4|n	-0.08616462
-2.967054	款}k|ua3|n	-0.9100733
-3.745205	佩}p|ei4	-0.3871946
-3.620266	伤}sh|a1|ng	-0.2244673
-3.745205	潜}q|ia2|n	-0.1531114
-3.921296	抓}zh|ao1	-0.1830746
-2.690847	起}q|i3	-0.5298622
-2.943573	教}j|iao4	-0.362371
-3.319236	条}t|iao2	-0.4219567
-3.222326	了}l|iao3	-0.6504361
-3.377228	威}uei1	-0.2780501
-3.620266	武}u3	-0.2244673
-3.620266	幕}m|a4|n	-0.3292027
-3.523356	忍}r|e3|n	-0.3292027
-3.745205	谊}i2	-0.2622559
-4.222326	勿}u4	-0.08616462
-3.108383	使}sh|ii3	-0.5420966
-3.076198	节}j|ie2	-0.4936499
-4.222326	把}b|a3	-0.08616461
-3.620266	握}uo4	-0.4841046
-3.745205	继}j|i4	-0.1531114
-3.745205	抱}b|ao4	-0.2322927
-3.745205	磨}m|o4	-0.1830746
-4.222326	附}f|u4	-0.08616463
-3.745205	讲}j|ia3|ng	-0.1531114
-3.319236	根}g|e1|n	-0.2488919
-3.143145	治}zh|ii4	-0.2690953
-4.222326	拆}ch|e4	-0.08616462
-3.377228	灾}z|ai1	-0.4841047
-4.222326	韶}sh|ao2	-0.08616462
-3.921296	埃}ai1	-0.2111034
-4.222326	焦}j|iao1	-0.08616463
-3.921296	炭}t|a4|n	-0.2622559
-3.319236	获}h|uai2	-0.3871946
-3.377228	育}v4	-0.3550099
-3.921296	三}s|a1|n	-0.08616462
-3.222326	个}g|e4	-0.4451866
-3.620266	巴}b|a1	-0.1141933
-3.745205	乐}l|e4	-0.08616462
-3.222326	空}k|o1|ng	-0.2174435
-2.860598	海}h|ai3	-0.3190788
-4.222326	鸥}ou1	-0.08616462
-3.222326	就}j|iu4	-0.2359269
-3.745205	底}d|i3	-0.5632859
-4.222326	一|一}i1	-0.08616462
-4.222326	恭}g|o1|ng	-0.08616462
-3.319236	查}ch|a2	-0.205351
-3.921296	崇}ch|o2|ng	-0.1653459
-4.222326	个}g|e5	-0.08616462
-4.222326	务}u5	-0.08616462
-3.921296	襟}j|i1|n	-0.2622559
-3.921296	幢}ch|ua2|ng	-0.2622559
-3.921296	答}d|a2	-0.08616462
-4.222326	幅}f|u2	-0.08616463
-3.745205	姆}m|u3	-0.5632859
-3.921296	绒}r|o2|ng	-0.3871946
-3.444175	环}h|ua2|n	-0.3494061
-3.745205	赞}z|a4|n	-0.1653459
-3.319236	改}g|ai3	-0.2732512
-3.620266	盛}ch|e2|ng	-0.2410666
-4.222326	拖}t|uo1	-0.08616462
-4.222326	垮}k|ua3	-0.08616462
-3.319236	票}p|iao4	-0.7393771
-4.222326	戈}g|e1	-0.08616462
-3.222326	间}j|ia4|n	-0.5254973
-3.745205	秘}m|i4	-0.3080134
-3.143145	处}ch|u3	-0.4135236
-2.824386	外}uai4	-0.3480425
-4.222326	挫}c|uo4	-0.08616462
-3.523356	折}sh|e2	-0.3292027
-4.222326	皆}j|ie1	-0.08616462
-4.222326	冬}d|o1|ng	-0.08616463
-4.222326	招}q|iao2	-0.08616462
-3.745205	房}f|a2|ng	-0.2322927
-3.745205	几}j|i3	-0.1275573
-3.745205	莱}l|ai2	-0.3871946
-3.180933	组}z|u3	-0.5632859
-3.018206	造}z|ao4	-0.4493425
-4.222326	斌}b|i1|n	-0.08616462
-3.921296	印}i4|n	-0.1319221
-3.620266	真}zh|e1|n	-0.1763412
-3.620266	警}j|i3|ng	-0.2111033
-3.319236	察}ch|a2	-0.2902846
-3.921296	纺}f|a3|ng	-0.2111034
-3.523356	织}zh|ii1	-0.4541414
-3.620266	郊}j|iao1	-0.3871946
-3.143145	河}h|e2	-0.3250467
-3.222326	北}b|ei3	-0.297018
-3.444175	严}ia2|n	-0.2187902
-3.745205	蒂}d|i4	-0.2622559
-3.523356	固}g|u4	-0.3871946
-3.620266	裁}c|ai2	-0.2902846
-4.222326	吐}t|u4	-0.08616462
-3.444175	批}p|i1	-0.297018
-3.523356	支}zh|ii1	-0.2026702
-4.222326	浙}zh|e4	-0.08616462
-3.620266	简}j|ia3|n	-0.1909
-3.523356	野}ie3	-0.2902846
-3.523356	草}c|ao3	-0.2410666
-3.444175	厚}h|ou4	-0.3871946
-3.620266	驻}zh|u4	-0.2410666
-2.790963	道}d|ao4	-0.575185
-3.921296	衫}sh|a1|n	-0.3871946
-3.620266	神}sh|e2|n	-0.1953091
-3.921296	矢}sh|ii3	-0.08616462
-4.222326	榜}b|a3|ng	-0.08616462
-4.222326	戏}h|uei1	-0.08616462
-4.222326	荒}h|ua1|ng	-0.08616462
-3.620266	临}l|i4|n	-0.2111034
-3.268084	导}d|ao4	-0.3871947
-3.921296	废}f|ei4	-0.08616462
-3.046235	料}l|iao4	-0.9892545
-4.222326	钢}g|a1|ng	-0.08616463
-3.222326	材}c|ai2	-0.7851346
-3.620266	替}t|i4	-0.3871946
-4.222326	枢}sh|u1	-0.08616462
-3.222326	族}z|u2	-0.3669912
-3.319236	验}ia4|n	-0.4663759
-3.620266	发}f|a3	-0.3080134
-3.018206	数}sh|u4	-0.3724713
-3.745205	颖}i3|ng	-0.2111034
-3.523356	宁}n|i4|ng	-0.2322927
-2.654124	用}io4|ng	-0.4590767
-3.523356	楼}l|ou2	-0.4541414
-3.523356	假}j|ia3	-0.2622559
-4.222326	携}x|i1	-0.08616462
-4.222326	瘟}ue1|n	-0.08616462
-3.745205	疫}i4	-0.3871946
-3.620266	叹}t|a4|n	-0.3080134
-3.319236	息}x|i1	-0.9892546
-3.523356	差}ch|a1	-0.2622559
-3.523356	升}sh|e1|ng	-0.2902846
-3.444175	十}sh|ii2	-0.2208632
-3.921296	浪}l|a4|ng	-0.08616462
-3.377228	典}d|ia3|n	-0.3871947
-4.222326	曼}m|a4|n	-0.08616464
-3.921296	谷}g|u3	-0.08616463
-4.222326	睬}c|ai3	-0.08616462
-4.222326	刺}c|ii1	-0.08616462
-3.921296	损}s|ue3|n	-0.1653459
-3.444175	付}f|u4	-0.5121333
-4.222326	崭}zh|a3|n	-0.08616462
-4.222326	倪}n|i2	-0.08616462
-3.319236	算}s|ua4|n	-0.4285873
-3.377228	诚}ch|e2|ng	-0.3871946
-3.108383	回}h|uei2	-0.2374323
-3.523356	独}d|u2	-0.1830746
-3.523356	午}u3	-0.3871946
-3.523356	餐}c|a1|n	-0.3292027
-3.377228	纳}n|a4	-0.2824593
-3.745205	的}d|e5	-0.2111034
-2.900107	说}sh|uo1	-0.5071699
-3.268084	识}sh|ii4	-0.4663759
-3.222326	义}i4	-0.2509749
-3.523356	考}k|ao3	-0.2458655
-3.620266	肥}f|ei2	-0.3292027
-4.222326	唯}uei2	-0.08616462
-3.620266	征}zh|e1|ng	-0.3292027
-3.921296	每}m|ei3	-0.1441566
-4.222326	祟}s|uei4	-0.08616462
-4.222326	字}z|ii5	-0.08616462
-3.523356	稿}g|ao3	-0.7851347
-3.921296	姿}z|ii1	-0.2111034
-3.745205	仗}zh|a4|ng	-0.3871946
-3.444175	执}zh|ii2	-0.2458655
-3.620266	包}b|ao1	-0.2410666
-3.921296	括}k|uo4	-0.3871946
-3.319236	烈}l|ie4	-0.4841047
-3.377228	辞}c|ii2	-0.4383472
-4.222326	拚}p|a4|n	-0.08616462
-4.222326	瘫}t|a1|n	-0.08616461
-4.222326	痪}h|ua4|n	-0.08616462
-4.222326	沉}ch|e2|n	-0.08616463
-4.222326	溺}n|i4	-0.08616462
-3.222326	全}q|va2|n	-0.1804345
-3.620266	斗}d|ou4	-0.2322927
-3.921296	焕}h|ua4|n	-0.2111034
-3.921296	许}h|u3	-0.08616462
-4.222326	憧}ch|o1|ng	-0.08616463
-4.222326	憬}j|i3|ng	-0.08616462
-4.222326	芝}zh|ii1	-0.08616462
-3.268084	间}j|ia1|n	-1.040407
-3.523356	审}sh|e3|n	-0.2208632
-3.921296	役}i4	-0.3871946
-3.046235	此}c|ii3	-0.4285873
-3.319236	将}j|ia1|ng	-0.4663759
-4.222326	缝}f|e4|ng	-0.08616462
-3.745205	宴}ia4|n	-0.2111034
-4.222326	庚}g|e1|ng	-0.08616462
-3.377228	济}j|i4	-0.1953091
-3.444175	矿}g|o3|ng	-0.2458655
-3.745205	困}k|ue4|n	-0.1653459
-3.620266	扰}r|ao3	-0.3871946
-3.523356	提}t|i2	-0.1441566
-4.222326	婴}i1|ng	-0.08616462
-3.180933	语}v3	-0.5121334
-3.745205	森}s|e1|n	-0.08616462
-3.143145	林}l|i2|n	-0.362371
-3.620266	牛}n|iu2	-0.2410666
-3.523356	骨}g|u3	-0.3080134
-3.745205	累}l|ei3	-0.1531114
-3.921296	锋}f|e1|ng	-0.2622559
-4.222326	恪}k|e4	-0.08616463
-3.268084	守}sh|ou3	-0.4219567
-3.921296	第}d|i4	-0.08616462
-3.745205	届}j|ie4	-0.3871946
-4.222326	斧}f|u3	-0.08616462
-2.900107	论}l|ue4|n	-0.4715154
-3.745205	坛}t|a2|n	-0.3871946
-4.222326	谦}q|ia4|n	-0.08616461
-3.377228	未}uei4	-0.3080134
-3.921296	参}c|a1|n	-0.1373172
-3.377228	越}ve4	-0.3550099
-3.921296	截}j|ie2	-0.08616462
-3.921296	瑞}r|uei4	-0.08616462
-3.745205	史}sh|ii3	-0.1733148
-2.730964	长}zh|a3|ng	-1.114193
-3.268084	久}j|iu3	-0.5254973
-3.745205	休}x|iu1	-0.1830746
-3.921296	息}x|i5	-0.3871946
-3.745205	买}m|ai3	-0.1373172
-3.745205	要}iao1	-0.08616462
-4.222326	攀}p|a1|n	-0.08616463
-3.620266	珠}zh|u1	-0.2622559
-3.620266	也}ie3	-0.2322927
-3.921296	倒}d|ao4	-0.08616462
-3.745205	构}g|ou4	-0.2622559
-3.620266	喜}x|i3	-0.2410666
-3.921296	借}j|ie4	-0.1653459
-3.921296	虫}ch|o2|ng	-0.3871946
-3.620266	消}x|iao1	-0.1830746
-3.921296	耗}h|ao4	-0.2111034
-3.444175	船}ch|ua2|n	-0.3080134
-3.444175	研}ia2|n	-0.3080134
-3.620266	究}j|iu1	-0.1653459
-3.444175	技}j|i4	-0.3871946
-3.745205	更}g|e4|ng	-0.1275573
-3.444175	演}ia3|n	-0.297018
-3.180933	比}b|i3	-0.2244673
-3.319236	赛}s|ai4	-0.6882246
-3.620266	鲁}l|u3	-0.2111034
-3.143145	室}sh|ii4	-1.165346
-4.222326	涡}g|uo1	-0.08616462
-3.319236	例}l|i4	-0.4663759
-3.222326	强}q|ia2|ng	-0.2111034
-3.444175	染}r|a3|n	-0.6302327
-3.523356	己}j|i3	-0.7851347
-4.222326	某}m|ou3	-0.08616463
-3.523356	败}b|ai4	-0.2902846
-4.222326	结}j|ie3	-0.08616462
-4.222326	迈}m|ai4	-0.08616463
-4.222326	拍}p|ai1	-0.08616462
-4.222326	微}uei1	-0.08616461
-4.222326	浇}j|iao1	-0.08616462
-3.921296	灌}g|ua4|n	-0.08616463
-3.921296	贯}g|ua4|n	-0.08616462
-3.921296	彻}ch|e4	-0.08616463
-3.143145	华}h|ua2	-0.332837
-3.222326	会}h|uei1	-0.4841047
-3.620266	死}s|ii3	-0.1830747
-3.143145	声}sh|e1|ng	-0.3524325
-3.143145	存}c|ue2|n	-0.4083839
-3.745205	档}d|a4|ng	-0.3871946
-4.222326	熙}x|i1	-0.08616462
-4.222326	姐}j|ie3	-0.08616462
-3.523356	检}j|ia3|n	-0.2111033
-3.921296	畔}p|a4|n	-0.3871946
-3.444175	笔}b|i3	-0.5121333
-3.377228	策}c|e4	-0.5632859
-3.377228	短}d|ua3|n	-0.3080134
-4.222326	暂}zh|a4|n	-0.08616462
-3.921296	脸}l|ia3|n	-0.3871946
-3.319236	切}q|ie4	-0.5632859
-3.745205	副}f|u4	-0.1183493
-4.222326	湘}x|ia1|ng	-0.08616462
-3.745205	侨}q|iao2	-0.2111034
-3.143145	额}e4	-0.8643159
-4.222326	庇}b|i4	-0.08616462
-3.377228	听}t|i1|ng	-0.2902846
-3.745205	双}sh|ua1|ng	-0.1319221
-4.222326	刃}l|ia3|ng	-0.08616462
-3.108383	月}ve4	-0.6882246
-4.222326	探}t|a1|n	-0.08616462
-3.620266	急}j|i2	-0.2111034
-3.745205	虚}x|v1	-0.08616462
-3.745205	扎}zh|a2	-0.2111034
-4.222326	意|义}i4	-0.08616462
-3.444175	福}f|u2	-0.3202478
-3.268084	官}g|ua1|n	-0.501138
-4.222326	锥}zh|uei1	-0.08616462
-3.377228	谈}t|a2|n	-0.2752209
-3.523356	亡}ua2|ng	-0.3871946
-3.921296	较}j|iao4	-0.1830746
-4.222326	柬}j|ia3|n	-0.08616461
-3.523356	核}h|e2	-0.1953091
-3.523356	险}x|ia3|n	-0.5632859
-3.745205	隆}l|o2|ng	-0.1830746
-3.745205	慑}sh|e4	-0.5632859
-3.319236	选}x|va3|n	-0.4285873
-3.018206	厂}ch|a3|ng	-0.6090433
-4.222326	帚}zh|ou3	-0.08616462
-4.222326	或}h|uo4	-0.08616462
-3.076198	效}x|iao4	-0.5052939
-3.921296	剥}b|o1	-0.08616463
-4.222326	抑}i4	-0.08616463
-3.620266	剂}j|i4	-0.6882246
-4.222326	窝}uo1	-0.08616462
-3.377228	减}j|ia3|n	-0.3292027
-3.523356	良}l|ia2|ng	-0.2111034
-3.620266	善}sh|a4|n	-0.2622559
-3.921296	倍}b|ei4	-0.2111034
-3.377228	域}v4	-0.6090434
-4.222326	靖}j|i4|ng	-0.08616462
-3.620266	将}j|ia4|ng	-0.3871946
-3.523356	宾}b|i1|n	-0.2622559
-4.222326	披}p|i1	-0.08616462
-3.745205	浪}l|a2|ng	-0.3080134
-3.921296	摸}m|ao1	-0.3871946
-4.222326	撤}ch|e4	-0.08616462
-4.222326	屏}b|i3|ng	-0.08616462
-3.620266	障}zh|a4|ng	-0.4841046
-3.921296	偏}p|ia1|n	-0.1373172
-4.222326	这}zh|e4	-0.08616462
-3.620266	挥}h|uei1	-0.1733148
-3.921296	棒}b|a4|ng	-0.3871946
-3.268084	层}c|e2|ng	-0.4541414
-4.222326	熏}x|v1|n	-0.08616462
-3.921296	沿}ia2|n	-0.08616462
-3.444175	张}zh|a4|ng	-0.2622559
-4.222326	贡}g|o4|ng	-0.08616461
-3.745205	献}x|ia4|n	-0.2622559
-4.222326	燕}ia1|n	-0.08616462
-4.222326	肩}j|ia1|n	-0.08616463
-3.222326	负}f|u4	-0.3414371
-3.745205	宽}k|ua1|n	-0.2622559
-3.143145	护}h|u4	-0.4106757
-3.745205	鱼}v2	-0.2111034
-3.921296	塘}t|a2|ng	-0.3871946
-3.745205	辅}f|u3	-0.2111034
-3.180933	变}b|ia4|n	-0.3524325
-4.222326	贫}p|i2|n	-0.08616462
-3.745205	唤}h|ua4|n	-0.3871946
-3.921296	很}h|e3|n	-0.1830746
-4.222326	涟}l|ia2|n	-0.08616462
-3.268084	律}l|v4	-0.4219567
-4.222326	暑}sh|u3	-0.08616463
-3.377228	胜}sh|e1|ng	-0.2622559
-3.921296	调}t|iao2	-0.08616462
-4.222326	棠}t|a2|ng	-0.08616462
-3.921296	培}p|ei2	-0.1531114
-4.222326	概}g|ai4	-0.08616462
-3.377228	念}n|ia4|n	-0.4841047
-3.620266	称}ch|e1|ng	-0.1830747
-3.620266	哈}h|a1	-0.1319221
-3.620266	导}d|ao3	-0.2322927
-3.921296	叫}j|iao4	-0.2622559
-3.620266	夺}d|uo2	-0.4841046
-3.377228	字}z|ii4	-0.4383471
-3.921296	疗}l|iao4	-0.08616462
-4.222326	艰}j|ia1|n	-0.08616462
-3.523356	奋}f|e4|n	-0.2244673
-3.620266	斗}d|ou3	-0.2111034
-3.921296	净}j|i4|ng	-0.2622559
-4.222326	匪}f|ei3	-0.08616462
-3.523356	剧}j|i2	-0.5632859
-3.745205	牧}m|u4	-0.08616464
-3.921296	拥}io3|ng	-0.1653459
-4.222326	肇}zh|ao4	-0.08616463
-4.222326	发}f|a5	-0.08616462
-3.745205	康}k|a1|ng	-0.3080134
-3.745205	闻}ue2|n	-0.3871946
-3.921296	宗}z|o1|ng	-0.1830746
-3.523356	创}ch|ua4|ng	-0.2322927
-3.921296	监}j|ia4|n	-0.1531114
-3.523356	即}j|i2	-0.2410666
-3.076198	号}h|ao4	-0.8131633
-3.921296	迟}ch|ii2	-0.1830746
-4.222326	驾}j|ia4	-0.08616462
-3.921296	驶}sh|ii3	-0.1830746
-3.319236	照}zh|ao4	-0.3360421
-3.620266	乐}ve4	-0.1830747
-4.222326	钮}n|iu3	-0.08616462
-3.319236	防}f|a2|ng	-0.2322927
-3.921296	蛮}m|a2|n	-0.08616461
-3.018206	取}q|v3	-0.4193792
-4.222326	永}io3|ng	-0.08616462
-4.222326	耿}g|e3|ng	-0.08616462
-4.222326	赤}ch|ii4	-0.08616464
-3.319236	贸}m|ao4	-0.5632859
-3.444175	易}i4	-0.2111033
-3.921296	雷}l|ei2	-0.1653459
-4.222326	厉}l|ai4	-0.08616462
-3.523356	罪}z|uei4	-0.3494061
-3.921296	硕}sh|ii2	-0.2111034
-3.921296	尤}iou2	-0.08616462
-3.046235	为}uei2	-0.6659482
-4.222326	卓}zh|uo2	-0.08616462
-4.222326	秋}q|iu1	-0.08616461
-3.921296	胡}h|u2	-0.08616462
-3.921296	梯}t|i1	-0.2111034
-3.620266	评}p|i2|ng	-0.2902846
-3.921296	驱}q|v1	-0.1830746
-4.222326	乔}q|iao2	-0.08616462
-4.222326	恬}t|ia2|n	-0.08616463
-4.222326	摆}b|ai3	-0.08616462
-3.921296	觉}j|iao4	-0.3871946
-3.222326	往}ua3|ng	-0.5333227
-4.222326	堆}d|uei1	-0.08616461
-4.222326	拂}f|u2	-0.08616462
-3.921296	瑰}g|uei1	-0.08616463
-3.523356	丽}l|i4	-0.7851347
-4.222326	耐}n|ai4	-0.08616462
-4.222326	缤}b|i1|n	-0.08616462
-3.523356	纷}f|e1|n	-0.3292027
-4.222326	畜}ch|u4	-0.08616462
-3.620266	忧}iou1	-0.3292027
-3.745205	夫}f|u1	-0.2622559
-4.222326	区}g|ou1	-0.08616462
-3.268084	试}sh|ii4	-0.3871947
-3.620266	桥}q|iao2	-0.2622559
-4.222326	崔}c|uei1	-0.08616461
-3.921296	凯}k|ai3	-0.3871946
-3.523356	干}g|a4|n	-0.2902846
-3.745205	震}zh|e4|n	-0.1953091
-3.523356	荡}d|a4|ng	-0.7851347
-3.620266	益}i4	-0.6882246
-3.921296	顽}ua2|n	-0.08616462
-4.222326	谱}p|u3	-0.08616463
-3.377228	写}x|ie3	-0.4285873
-3.745205	宁}n|i2|ng	-0.2111034
-3.921296	唁}ia4|n	-0.08616462
-3.268084	洋}ia2|ng	-0.6504361
-4.222326	妍}ia2|n	-0.08616462
-4.222326	汗}h|a4|n	-0.08616462
-3.921296	跟}g|e1|n	-0.2111034
-4.222326	菏}h|e2	-0.08616462
-3.921296	寺}s|ii4	-0.3871946
-4.222326	并}b|i1|ng	-0.08616462
-3.444175	端}d|ua1|n	-0.4383471
-3.620266	阁}g|e2	-0.4841046
-4.222326	谅}l|ia4|ng	-0.08616462
-4.222326	唉}ai1	-0.08616462
-4.222326	贞}zh|e1|ng	-0.08616462
-3.745205	吃}ch|ii1	-0.1373171
-4.222326	漏}l|ou4	-0.08616463
-3.745205	床}ch|ua2|ng	-0.2622559
-4.222326	圆}va2|n	-0.08616462
-3.523356	早}z|ao3	-0.2458655
-3.444175	讯}x|v4|n	-0.6302327
-4.222326	台}t|ai1	-0.08616462
-4.222326	玉}v4	-0.08616463
-4.222326	记}j|i5	-0.08616462
-3.921296	描}m|iao2	-0.08616462
-3.921296	绘}h|uei4	-0.2622559
-3.921296	绿}l|u4	-0.08616462
-4.222326	般}p|a2|n	-0.08616462
-3.377228	托}t|uo1	-0.5121333
-3.921296	弗}f|u2	-0.3871946
-3.377228	飞}f|ei1	-0.2458655
-4.222326	航}x|i2|ng	-0.08616462
-3.523356	行}h|a2|ng	-0.4841046
-4.222326	邹}z|ou1	-0.08616462
-3.921296	饱}b|ao3	-0.1830746
-4.222326	蔼}ai3	-0.08616462
-4.222326	菲}f|ei1	-0.08616463
-3.377228	毒}d|u2	-0.3494061
-3.620266	穷}q|io2|ng	-0.6882246
-3.377228	段}d|ua4|n	-0.7393772
-4.222326	链}l|ia4|n	-0.08616463
-3.921296	沟}g|ou1	-0.2111034
-3.921296	喊}h|a3|n	-0.3871946
-4.222326	渊}va1|n	-0.08616462
-3.620266	佳}j|ia1	-0.4841046
-3.745205	宰}z|ai3	-0.2622559
-4.222326	糙}c|ao1	-0.08616462
-4.222326	撞}ch|ua2|ng	-0.08616462
-3.523356	勤}q|i2|n	-0.3080134
-4.222326	降}x|ia2|ng	-0.08616462
-3.745205	企}q|i4	-0.5632859
-3.143145	小}x|iao3	-0.3458019
-3.921296	眉}m|ei2	-0.08616464
-4.222326	溃}k|uei4	-0.08616462
-3.444175	归}g|uei1	-0.3494061
-3.444175	途}t|u2	-0.2902846
-4.222326	俘}f|u2	-0.08616462
-3.268084	纪}j|i4	-0.3080134
-3.921296	显}x|ia3|n	-0.1441566
-3.444175	免}m|ia3|n	-0.3414372
-4.222326	鹿}l|u4	-0.08616462
-3.377228	换}h|ua4|n	-0.3292027
-3.921296	掘}j|ve2	-0.2622559
-3.523356	健}j|ia4|n	-0.3080134
-4.222326	拘}j|v1	-0.08616463
-3.745205	当}d|a4|ng	-0.2111034
-3.745205	旗}q|i2	-0.2622559
-4.222326	帜}zh|ii4	-0.08616462
-3.921296	汛}x|v4|n	-0.2622559
-4.222326	暂}z|a4|n	-0.08616462
-4.222326	淇}q|i2	-0.08616462
-4.222326	哪}n|a3	-0.08616463
-3.921296	里}l|i5	-0.3871946
-3.745205	担}d|a1|n	-0.1953091
-3.523356	余}v2	-0.3871946
-4.222326	紫}z|ii3	-0.08616462
-3.921296	酋}q|iu2	-0.08616461
-4.222326	气}q|i5	-0.08616462
-3.745205	英}i1|ng	-0.1830747
-3.620266	缓}h|ua3|n	-0.2111034
-4.222326	约}iao1	-0.08616462
-4.222326	株}zh|u1	-0.08616462
-3.523356	革}g|e2	-0.3871946
-4.222326	揭}j|ie1	-0.08616462
-3.444175	诉}s|u4	-0.4383471
-4.222326	盯}ch|e1|ng	-0.08616462
-3.745205	川}ch|ua1|n	-0.3080134
-4.222326	斑}b|a1|n	-0.08616463
-4.222326	斓}l|a2|n	-0.08616462
-3.745205	控}k|o4|ng	-0.3080134
-3.377228	何}h|e2	-0.2111034
-4.222326	挑}t|iao3	-0.08616462
-3.745205	若}r|e3	-0.08616462
-3.745205	轮}l|ue1|n	-0.1441566
-4.222326	聆}l|i2|ng	-0.08616463
-4.222326	父}f|u4	-0.08616463
-4.222326	屑}x|ie4	-0.08616462
-4.222326	哭}k|u1	-0.08616462
-3.745205	余}x|v2	-0.2111034
-4.222326	窗}ch|ua1|ng	-0.08616462
-3.046235	户}h|u4	-0.739377
-3.444175	服}f|u4	-0.2622559
-3.268084	属}sh|u3	-0.4663759
-3.921296	泱}ia1|ng	-0.08616462
-4.222326	掀}x|ia1|n	-0.08616462
-3.921296	倡}ch|a4|ng	-0.2622559
-3.921296	宋}s|o4|ng	-0.2622559
-4.222326	挞}t|a4	-0.08616462
-4.222326	峪}v4	-0.08616462
-4.222326	她}t|a1	-0.08616461
-3.921296	忡}ch|o1|ng	-0.08616462
-4.222326	兑}d|uei4	-0.08616462
-3.377228	像}x|ia4|ng	-0.6882246
-4.222326	玫}m|ei2	-0.08616463
-3.921296	侵}q|i1|n	-0.2111034
-3.523356	港}g|a3|ng	-0.2824593
-4.222326	双}sh|ua4|ng	-0.08616462
-4.222326	强}j|ia4|ng	-0.08616462
-3.745205	只}zh|ii1	-0.1653459
-3.620266	慢}m|a4|n	-0.4841046
-4.222326	扑}p|u1	-0.08616461
-3.921296	炸}zh|a4	-0.2622559
-4.222326	衰}c|uei1	-0.08616462
-3.745205	激}j|i1	-0.1733148
-3.620266	湾}ua1|n	-0.3292027
-4.222326	溉}g|ai4	-0.08616462
-3.076198	程}ch|e2|ng	-0.6882246
-3.921296	扎}z|a1	-0.08616463
-4.222326	系}x|i5	-0.08616462
-3.745205	欲}v4	-0.5632859
-3.745205	暗}a4|n	-0.1531114
-4.222326	掠}l|ve4	-0.08616462
-3.745205	绳}sh|e2|ng	-0.3871946
-3.921296	怪}g|uai4	-0.3871946
-4.222326	杜}d|u4	-0.08616461
-4.222326	澄}d|e4|ng	-0.08616462
-4.222326	慕}m|u4	-0.08616461
-3.921296	阴}i1|n	-0.08616462
-3.745205	雨}v3	-0.08616462
-4.222326	吓}x|ia4	-0.08616462
-3.444175	龙}l|o2|ng	-0.2902846
-3.180933	住}zh|u4	-0.5121334
-3.745205	暴}b|ao4	-0.1653459
-3.108383	件}j|ia4|n	-1.200108
-4.222326	轴}zh|ou4	-0.08616462
-3.268084	养}ia3|ng	-0.3080134
-3.745205	幸}x|i4|ng	-0.2622559
-3.921296	析}x|i1	-0.2622559
-3.620266	版}b|a3|n	-0.2410666
-3.444175	套}t|ao4	-0.6302327
-3.377228	景}j|i3|ng	-0.3494061
-3.921296	奴}n|u2	-0.08616462
-4.222326	浓}n|o2|ng	-0.08616463
-4.222326	妨}f|a2|ng	-0.08616462
-3.620266	碍}ai4	-0.6882246
-4.222326	氏}sh|ii4	-0.08616462
-3.444175	晚}ua3|n	-0.4383472
-4.222326	煽}sh|a1|n	-0.08616462
-2.967054	光}g|ua1|ng	-0.4193792
-4.222326	杰}j|ie2	-0.08616462
-3.921296	泪}l|ei4	-0.08616463
-4.222326	哨}sh|ao4	-0.08616462
-4.222326	仪}i2	-0.08616462
-4.222326	扩}k|uo4	-0.08616462
-3.745205	抵}d|i3	-0.1953091
-3.921296	御}v4	-0.3871946
-3.523356	温}ue1|n	-0.2622559
-3.319236	远}va3|n	-0.2622559
-3.921296	疆}j|ia1|ng	-0.2111034
-3.620266	奖}j|ia3|ng	-0.2902846
-3.921296	勋}x|v1|n	-0.3871946
-3.620266	镇}zh|e4|n	-0.6882246
-4.222326	济}j|i3	-0.08616462
-4.222326	衔}x|ia2|n	-0.08616463
-4.222326	蹲}c|ue2|n	-0.08616462
-3.745205	延}ia2|n	-0.2322927
-3.921296	伸}sh|e1|n	-0.08616464
-3.745205	齐}j|i4	-0.08616463
-3.268084	访}f|a3|ng	-0.6504361
-3.921296	降}j|ia4|ng	-0.1653459
-3.523356	判}p|a4|n	-0.3080134
-3.620266	册}c|ai3	-0.2622559
-3.921296	爆}b|ao4	-0.2111034
-4.222326	腐}f|u3	-0.08616462
-3.921296	蚀}sh|ii2	-0.08616462
-3.046235	等}d|e3|ng	-0.4427119
-3.921296	坝}b|a4	-0.2622559
-3.319236	除}ch|u2	-0.4663759
-3.921296	崎}q|i1	-0.3871946
-4.222326	凝}n|i2|ng	-0.08616462
-3.523356	货}h|uo4	-0.1653459
-3.620266	惩}ch|e2|ng	-0.2902846
-3.620266	罚}f|a2	-0.3871946
-3.523356	划}h|ua2	-0.2322927
-3.921296	循}x|v2|n	-0.2622559
-3.620266	师}sh|ii1	-0.2244673
-3.745205	旺}ua4|ng	-0.1830746
-3.444175	转}zh|ua3|n	-0.1531114
-3.620266	衡}h|e2|ng	-0.3871946
-3.745205	奏}z|ou4	-0.3871946
-3.319236	石}sh|ii2	-0.297018
-3.921296	冷}l|e3|ng	-0.1373172
-3.921296	冻}d|o4|ng	-0.08616462
-3.921296	劣}l|ie4	-0.3871946
-3.745205	润}r|ue4|n	-0.3871946
-3.921296	儿}e5|r	-0.08616462
-3.745205	童}t|o2|ng	-0.1653459
-3.319236	罗}l|uo2	-0.2824592
-3.377228	子}z|ii5	-0.9312627
-3.921296	什}sh|ii2	-0.08616461
-3.745205	我}uo3	-0.1733148
-4.222326	隐}i3|n	-0.08616463
-3.523356	患}h|ua4|n	-0.2902846
-3.745205	怒}n|u4	-0.2111034
-3.745205	耳}e3|r	-0.08616464
-4.222326	百}b|o2	-0.08616462
-4.222326	蓝}l|a2|n	-0.08616462
-3.745205	血}x|ve4	-0.1830746
-3.921296	豪}h|ao2	-0.2622559
-4.222326	谜}m|i4	-0.08616462
-4.222326	虽}s|uei2	-0.08616462
-4.222326	佑}iou4	-0.08616462
-2.967054	前}q|ia2|n	-0.3046597
-4.222326	似}sh|ii4	-0.08616462
-3.444175	至}zh|ii4	-0.2410666
-3.921296	聘}p|i4|n	-0.2111034
-3.921296	澳}ao4	-0.1653458
-3.921296	娜}n|a4	-0.3871946
-4.222326	否}p|i3	-0.08616462
-3.444175	白}b|ai2	-0.2111033
-3.745205	法}f|a5	-0.5632859
-3.444175	便}b|ia4|n	-0.2824593
-3.745205	盈}i2|ng	-0.1830746
-4.222326	重}ch|o3|ng	-0.08616462
-4.222326	霞}x|ia2	-0.08616462
-4.222326	亦}uo3	-0.08616462
-3.620266	援}va2|n	-0.3871946
-3.523356	艺}i4	-0.2902846
-3.921296	那}n|a4	-0.1531114
-4.222326	鹰}i1|ng	-0.08616463
-4.222326	耀}ve4	-0.08616462
-4.222326	涂}t|u2	-0.08616462
-3.745205	似}s|ii4	-0.2111034
-3.268084	则}z|e2	-1.040407
-4.222326	嚣}x|iao1	-0.08616463
-3.523356	夏}x|ia4	-0.2410666
-4.222326	袒}t|a3|n	-0.08616462
-3.745205	刑}x|i2|ng	-0.1830746
-4.222326	狡}j|iao3	-0.08616463
-3.921296	诈}zh|a3	-0.3871946
-4.222326	牺}x|i1	-0.08616463
-4.222326	牲}sh|e1|ng	-0.08616462
-4.222326	波}p|o1	-0.08616462
-3.921296	且}q|ie3	-0.3871946
-3.921296	添}t|ia1|n	-0.2622559
-4.222326	异}e2|r	-0.08616462
-3.745205	探}t|a4|n	-0.1653459
-3.620266	索}s|uo3	-0.4841046
-3.921296	残}c|a2|n	-0.08616462
-4.222326	冰}b|i1|ng	-0.08616462
-3.620266	励}l|i4	-0.6882246
-4.222326	麾}h|uei1	-0.08616462
-3.523356	初}ch|u1	-0.2208632
-3.523356	词}c|ii2	-0.7851347
-3.745205	攻}g|o1|ng	-0.1441566
-3.921296	沼}zh|ao3	-0.08616461
-4.222326	靴}x|ve1	-0.08616462
-4.222326	珂}k|e1	-0.08616462
-3.921296	蕾}l|ei3	-0.08616461
-3.921296	识}sh|ii5	-0.2111034
-2.967054	向}x|ia4|ng	-0.6212777
-3.745205	松}s|o1|ng	-0.2622559
-3.377228	宜}i2	-0.5121333
-3.921296	滞}zh|ii4	-0.2622559
-3.921296	胆}d|a3|n	-0.2622559
-3.620266	缺}q|ve1	-0.2902846
-4.222326	疯}f|e1|ng	-0.08616462
-4.222326	玩}ua4|n	-0.08616462
-4.222326	风}f|e4|ng	-0.08616462
-3.921296	艾}ai4	-0.3871946
-3.745205	需}x|v1	-0.3871946
-4.222326	朴}p|u2	-0.08616462
-3.921296	廉}l|ia2|n	-0.2111034
-3.523356	紧}j|i3|n	-0.2322927
-3.620266	脏}z|a4|ng	-0.6882246
-4.222326	泗}s|ii4	-0.08616462
-3.745205	符}f|u2	-0.3871946
-3.745205	辑}j|i2	-0.5632859
-3.523356	卖}m|ai4	-0.3871946
-3.921296	顺}sh|ue4|n	-0.1653459
-3.268084	角}j|iao3	-0.4841047
-4.222326	纠}j|iu1	-0.08616461
-3.921296	闲}x|ia2|n	-0.08616461
-3.921296	寡}g|ua3	-0.08616463
-3.921296	悬}x|va2|n	-0.3871946
-3.745205	殊}sh|u1	-0.3080134
-4.222326	刹}ch|a4	-0.08616462
-4.222326	奶}n|ai3	-0.08616461
-3.921296	朴}p|u3	-0.08616462
-4.222326	女}n|u3	-0.08616462
-4.222326	颁}b|a1|n	-0.08616463
-4.222326	饲}s|ii4	-0.08616462
-3.921296	络}l|ao4	-0.3871946
-3.921296	吞}t|ue1|n	-0.08616461
-3.377228	录}l|u4	-0.4841047
-4.222326	狭}x|ia2	-0.08616462
-3.921296	财}c|ai2	-0.1275573
-4.222326	辽}l|iao2	-0.08616463
-3.921296	精}j|i1|ng	-0.1109882
-3.745205	液}ie4	-0.3080134
-4.222326	庸}io2|ng	-0.08616462
-4.222326	分}f|e5|n	-0.08616462
-3.222326	非}f|ei1	-0.362371
-4.222326	倒}d|ao3	-0.08616462
-3.745205	瓶}p|i2|ng	-0.3080134
-4.222326	欺}q|i1	-0.08616463
-3.921296	凌}l|i2|ng	-0.2622559
-3.523356	泽}z|e2	-0.08616462
-3.921296	随}s|uei2	-0.1373171
-4.222326	红}h|o2|ng	-0.08616462
-3.319236	首}sh|ou3	-0.2732513
-4.222326	洁}j|i2	-0.08616462
-4.222326	嵩}s|o1|ng	-0.08616462
-3.921296	喉}h|ou2	-0.08616461
-4.222326	舌}sh|e2	-0.08616462
-3.745205	板}b|a3|n	-0.5632859
-4.222326	扼}e4	-0.08616462
-3.745205	敢}g|a3|n	-0.1830746
-4.222326	锌}x|i1|n	-0.08616462
-4.222326	赡}sh|a4|n	-0.08616463
-3.745205	藏}z|a4|ng	-0.1830746
-4.222326	些}s|uo4	-0.08616462
-3.268084	尼}n|i2	-0.2824593
-4.222326	欣}x|i1|n	-0.08616462
-4.222326	藜}l|i2	-0.08616462
-3.745205	千}q|ia1|n	-0.3080134
-3.921296	嫁}j|ia4	-0.08616461
-4.222326	炮}b|ao1	-0.08616463
-4.222326	易}b	-0.08616463
-4.222326	燃}ao4|zh|a4	-0.08616462
-3.444175	干}g|a1|n	-0.3871946
-4.222326	攒}c|ua2|n	-0.08616462
-3.921296	重}ch|o2|ng	-0.08616462
-3.921296	酸}s|ua1|n	-0.3871946
-3.921296	饮}i3|n	-0.1653459
-4.222326	憔}q	-0.08616463
-4.222326	悴}iao2|c|uei4	-0.08616462
-3.921296	频}p|i2|n	-0.1653458
-4.222326	傍}b|a4|ng	-0.08616463
-4.222326	瞻}zh|a1|n	-0.08616462
-3.620266	仰}ia3|ng	-0.3871946
-4.222326	殷}ia1|n	-0.08616462
-3.523356	切}q|ie1	-0.2410666
-3.620266	味}uei4	-0.4841046
-3.921296	卢}l|u2	-0.1830746
-3.268084	舞}u3	-0.4219567
-4.222326	瑟}s|e4	-0.08616462
-3.620266	救}j|iu4	-0.2244673
-4.222326	神}sh|e1|n	-0.08616462
-3.921296	擒}q|i2|n	-0.08616462
-3.319236	断}d|ua4|n	-0.5254973
-4.222326	谁}sh|uei2	-0.08616462
-3.921296	悄}q|iao1	-0.08616462
-3.620266	阅}ve4	-0.3871946
-4.222326	扶}f|u2	-0.08616464
-3.745205	篇}p|ia1|n	-0.3080134
-4.222326	幅}f|u5	-0.08616462
-4.222326	俩}l|ia3|ng	-0.08616462
-4.222326	易}j|i2	-0.08616462
-3.523356	觉}j|ve2	-0.3080134
-3.620266	坦}t|a3|n	-0.2622559
-4.222326	厂}h|a4|n	-0.08616462
-3.921296	舟}zh|ou1	-0.08616463
-4.222326	扮}b|a4|n	-0.08616463
-4.222326	玛}m|a3	-0.08616462
-4.222326	脂}zh|ii1	-0.08616461
-4.222326	肪}f|a1|ng	-0.08616462
-3.921296	又}iou4	-0.3871946
-3.377228	籍}j|i2	-0.9312627
-4.222326	濒}b|i1|n	-0.08616462
-3.620266	汉}h|a4|n	-0.2244673
-3.523356	灭}m|ie4	-0.7851347
-3.745205	踪}z|o1|ng	-0.5632859
-4.222326	吊}d|iao4	-0.08616462
-3.921296	率}sh|uai4	-0.3871946
-3.921296	胸}x|io1|ng	-0.08616462
-3.745205	但}d|a4|n	-0.3871946
-3.745205	趣}q|v4	-0.5632859
-3.921296	塑}s|u4	-0.1830746
-3.745205	鼠}sh|u3	-0.3871946
-4.222326	追}zh|uei1	-0.08616461
-3.523356	割}g|e1	-0.3871946
-4.222326	疮}ch|ua1|ng	-0.08616461
-4.222326	疤}b|a1	-0.08616462
-3.921296	媒}m|ei2	-0.2622559
-3.444175	旧}j|iu4	-0.4541414
-3.921296	洪}h|o2|ng	-0.1653459
-4.222326	挑}t|ao1	-0.08616462
-3.921296	剔}t|i1	-0.2622559
-4.222326	庞}p|a2|ng	-0.08616462
-4.222326	牵}q|ia1|n	-0.08616463
-4.222326	陲}ch|uei2	-0.08616462
-3.921296	扯}ch|e3	-0.3871946
-4.222326	葫}h|u2	-0.08616463
-4.222326	拜}b|ai4	-0.08616464
-3.921296	歹}d|ai3	-0.08616461
-3.745205	尚}sh|a4|ng	-0.3871946
-4.222326	杭}h|a2|ng	-0.08616462
-3.444175	否}f|ou3	-0.3414371
-3.921296	窃}q|ie4	-0.08616463
-4.222326	混}g|ue3|n	-0.08616462
-3.745205	盐}ia2|n	-0.2111034
-4.222326	耕}g|e1|ng	-0.08616462
-3.921296	秀}x|iu4	-0.2111034
-4.222326	香}x|ia1|ng	-0.08616462
-3.523356	劳}l|ao2	-0.2111034
-4.222326	央}ia1|ng	-0.08616461
-4.222326	泥}n|i3	-0.08616462
-3.745205	输}sh|u1	-0.2322927
-4.222326	陕}sh|a3|n	-0.08616462
-4.222326	居}j|i1	-0.08616462
-3.444175	因}i1|n	-0.2622559
-3.523356	顿}d|ue4|n	-0.4541414
-3.921296	冠}g|ua1|n	-0.3871946
-3.921296	逆}n|i4	-0.2622559
-3.921296	没}m|ei2	-0.2111034
-3.745205	振}zh|e1|n	-0.3080134
-4.222326	另}l|i4|ng	-0.08616462
-4.222326	郭}g|uo1	-0.08616462
-3.620266	臣}ch|e2|n	-0.6882246
-3.745205	谨}j|i3|n	-0.3871946
-3.921296	慎}sh|e4|n	-0.2622559
-3.745205	购}g|ou4	-0.2322927
-3.180933	难}n|a2|n	-0.2824593
-4.222326	亟}j|i2	-0.08616462
-4.222326	摘}zh|ai1	-0.08616462
-3.921296	阻}z|u3	-0.1531114
-3.921296	挠}n|ao2	-0.3871946
-3.268084	和}h|a4|n	-0.5632859
-4.222326	褐}h|e2	-0.08616462
-3.620266	汽}q|i4	-0.3292027
-4.222326	耀}iao4	-0.08616462
-4.222326	俑}io3|ng	-0.08616462
-3.745205	渐}j|ia4|n	-0.3080134
-4.222326	解}j|ie4	-0.08616462
-3.921296	氛}f|e1|n	-0.3871946
-3.745205	仅}j|i4|n	-0.3080134
-3.921296	沃}uo4	-0.08616461
-3.921296	邮}iou2	-0.08616462
-4.222326	处}ch|u5	-0.08616462
-3.921296	媚}m|ei4	-0.2622559
-4.222326	悠|悠}iou1	-0.08616462
-3.745205	辖}x|ia2	-0.08616461
-4.222326	栋}d|o4|ng	-0.08616462
-3.620266	帝}d|i4	-0.4841046
-3.620266	黎}l|i2	-0.1653459
-3.745205	函}h|a2|n	-0.5632859
-4.222326	沿}ia4|n	-0.08616462
-4.222326	醇}ch|ue2|n	-0.08616462
-3.921296	殿}d|ia4|n	-0.2111034
-4.222326	漫}m|a2|n	-0.08616462
-3.921296	纵}z|o1|ng	-0.1830746
-3.745205	错}c|uo4	-0.2322927
-4.222326	舒}sh|u1	-0.08616461
-3.620266	览}l|a3|n	-0.2111034
-4.222326	男}n|a2|n	-0.08616462
-3.921296	夸}k|ua1	-0.2111034
-4.222326	镤}p|u2	-0.08616462
-4.222326	弄}n|o4|ng	-0.08616463
-4.222326	污}ua1	-0.08616462
-3.745205	宪}x|ia4|n	-0.3080134
-3.444175	脑}n|ao3	-0.3871946
-3.319236	群}q|v2|n	-0.5254973
-3.444175	岛}d|ao3	-0.4541414
-4.222326	禹}v3	-0.08616462
-4.222326	危}uei1	-0.08616463
-3.745205	滚}g|ue3|n	-0.2111034
-4.222326	吟}i2|n	-0.08616462
-3.745205	碑}b|ei1	-0.5632859
-4.222326	孙}s|ue1|n	-0.08616462
-4.222326	闽}m|i2|n	-0.08616462
-4.222326	穗}s|uei4	-0.08616462
-3.523356	村}c|ue1|n	-0.3080134
-3.319236	落}l|uo4	-0.2111033
-4.222326	家}j|ia5	-0.08616462
-4.222326	淮}h|uai2	-0.08616463
-3.745205	卸}x|ie4	-0.2622559
-3.620266	措}c|uo4	-0.3871946
-3.921296	宏}h|o2|ng	-0.08616464
-4.222326	础}ch|u3	-0.08616463
-3.620266	课}k|e4	-0.3871946
-3.921296	挂}g|ua4	-0.1531114
-3.921296	倾}k|e1|ng	-0.1830746
-4.222326	少}sh|ao4	-0.08616462
-3.745205	巧}q|iao3	-0.5632859
-3.620266	剧}j|v4	-0.3871946
-3.444175	痛}t|o4|ng	-0.5121333
-4.222326	夹}j|ia1	-0.08616463
-4.222326	遗}i2	-0.08616463
-4.222326	骸}h|ai2	-0.08616462
-4.222326	郑}zh|e4|ng	-0.08616462
-4.222326	卉}h|uei4	-0.08616462
-3.620266	揽}l|a3|n	-0.6882246
-4.222326	脆}c|uei4	-0.08616461
-3.921296	冈}g|a1|ng	-0.08616461
-3.620266	伯}b|o2	-0.2111033
-4.222326	洒}c|uei3	-0.08616462
-4.222326	盗}d|ao4	-0.08616462
-3.921296	缴}j|iao3	-0.08616462
-3.745205	赏}sh|a3|ng	-0.5632859
-4.222326	栗}l|i4	-0.08616462
-4.222326	度}d|u5	-0.08616462
-3.921296	吹}ch|uei1	-0.2111034
-3.921296	九}j|iu3	-0.2622559
-3.921296	叙}x|v4	-0.2622559
-3.745205	贺}h|e4	-0.3080134
-3.921296	盼}p|a4|n	-0.08616462
-3.745205	摩}m|a1	-0.08616462
-4.222326	茧}m|ia3|n	-0.08616462
-4.222326	匣}x|ia2	-0.08616462
-4.222326	责}zh|ai4	-0.08616462
-4.222326	成}ch|e5|ng	-0.08616462
-3.143145	举}j|v3	-0.3687112
-4.222326	俊}j|v4|n	-0.08616462
-3.523356	徒}t|u2	-0.7851347
-3.921296	辉}h|uei1	-0.08616462
-3.921296	灿}c|a4|n	-0.2622559
-4.222326	烂}l|a4|n	-0.08616462
-3.523356	盖}g|ai4	-0.3871946
-4.222326	跋}b|a2	-0.08616462
-4.222326	颇}p|o3	-0.08616462
-3.523356	二}e4|r	-0.3292027
-3.745205	著}zh|u4	-0.3080134
-3.745205	履}l|i3	-0.5632859
-4.222326	仲}zh|o4|ng	-0.08616462
-3.523356	训}x|v4|n	-0.5632859
-4.222326	桂}g|uei4	-0.08616461
-4.222326	搜}s|ou1	-0.08616462
-4.222326	蛋}d|a4|n	-0.08616462
-3.745205	距}j|v4	-0.3871946
-3.620266	吉}j|i2	-0.1733148
-4.222326	介}j|ie4	-0.08616463
-4.222326	洼}ua1	-0.08616462
-4.222326	闹}n|ao4	-0.08616461
-3.921296	坪}p|i2|ng	-0.3871946
-4.222326	遥}iao2	-0.08616463
-3.921296	雪}x|ve3	-0.08616461
-4.222326	扇}sh|a4|n	-0.08616462
-3.921296	毯}t|a3|n	-0.3871946
-3.921296	洞}d|o4|ng	-0.3871946
-3.745205	亏}k|uei1	-0.2111034
-3.745205	厦}sh|a4	-0.2622559
-4.222326	冒}m|o4	-0.08616462
-4.222326	拂}b|i4	-0.08616462
-3.921296	伙}h|uo3	-0.08616462
-3.921296	睹}d|u3	-0.3871946
-4.222326	纯}zh|ue3|n	-0.08616462
-4.222326	倡}ch|a1|ng	-0.08616463
-4.222326	艇}t|i3|ng	-0.08616462
-4.222326	乾}g|a1|n	-0.08616462
-3.745205	旱}h|a4|n	-0.5632859
-3.921296	屋}u1	-0.3871946
-3.921296	找}zh|ao3	-0.2111034
-3.523356	牌}p|ai2	-0.3871946
-4.222326	孚}f|u2	-0.08616462
-3.523356	促}c|u4	-0.3414372
-4.222326	堪}k|a1|n	-0.08616462
-4.222326	笋}s|ue3|n	-0.08616462
-3.745205	赴}f|u4	-0.5632859
-4.222326	贪}t|a1|n	-0.08616463
-4.222326	赃}z|a1	-0.08616463
-4.222326	枉}ng|ua3|ng	-0.08616463
-3.921296	八}b|a1	-0.08616462
-4.222326	插}ch|a1	-0.08616462
-3.745205	敬}j|i4|ng	-0.2111034
-4.222326	履}l|v3	-0.08616462
-4.222326	泵}l|iu2	-0.08616462
-4.222326	李}l|i3	-0.08616462
-3.523356	询}x|v2|n	-0.4841046
-3.745205	才}c|ai2	-0.2622559
-4.222326	俱}j|v4	-0.08616462
-3.745205	围}uei2	-0.2322927
-4.222326	溪}q|i1	-0.08616462
-4.222326	呈}ch|e2|ng	-0.08616464
-4.222326	撼}h|a4|n	-0.08616462
-3.921296	朽}x|iu3	-0.3871946
-3.745205	愤}f|e4|n	-0.2111034
-4.222326	喝}h|e1	-0.08616463
-4.222326	贝}b|ei4	-0.08616462
-3.745205	堡}b|ao3	-0.2622559
-3.921296	垒}l|ei3	-0.3871946
-3.745205	辈}b|ei4	-0.5632859
-3.921296	穿}ch|ua1|n	-0.08616463
-4.222326	梭}s|uo1	-0.08616462
-4.222326	劫}j|ie2	-0.08616462
-4.222326	与}v3	-0.08616462
-3.745205	歧}q|i2	-0.3871946
-4.222326	兽}sh|ou4	-0.08616462
-4.222326	伫}zh|u4	-0.08616463
-4.222326	烟}i1|n	-0.08616462
-4.222326	抽}ch|ou1	-0.08616463
-4.222326	卷}j|va3|n	-0.08616463
-3.745205	券}q|va4|n	-0.3080134
-4.222326	劈}p|i3	-0.08616462
-3.921296	欧}ou1	-0.2622559
-4.222326	瞄}m|iao2	-0.08616462
-3.921296	秘}b|i4	-0.08616462
-4.222326	巡}x|v2|n	-0.08616462
-4.222326	六}l|iu4	-0.08616462
-4.222326	陷}x|ia4|n	-0.08616462
-4.222326	撇}p|ie1	-0.08616462
-3.921296	悲}b|ei1	-0.08616464
-4.222326	召}zh|ao4	-0.08616462
-3.745205	叶}ie4	-0.5632859
-4.222326	伯}b|ai3	-0.08616462
-4.222326	邢}x|i2|ng	-0.08616461
-4.222326	掩}ia3|n	-0.08616462
-3.921296	骤}z|ou4	-0.3871946
-3.921296	卜}b|o2	-0.3871946
-4.222326	譬}p|i4	-0.08616463
-4.222326	匾}b|ia3|n	-0.08616462
-3.620266	序}x|v4	-0.3292027
-3.921296	狠}h|e3|n	-0.2111034
-4.222326	和}h|e5	-0.08616462
-4.222326	圣}k|u1	-0.08616462
-4.222326	帅}sh|uai4	-0.08616462
-3.921296	摇}iao2	-0.08616462
-4.222326	呢}n|e5	-0.08616462
-3.745205	嫌}x|ia2|n	-0.2622559
-4.222326	煤}m|ei2	-0.08616463
-4.222326	挣}zh|e4|ng	-0.08616462
-3.319236	钱}q|ia2|n	-0.4841047
-4.222326	跳}t|ao2	-0.08616464
-3.745205	背}b|ei4	-0.1653459
-3.921296	招}zh|ao1	-0.2111034
-4.222326	嘿}m|o4	-0.08616462
-4.222326	还}h|ai2	-0.08616462
-4.222326	挪}n|uo2	-0.08616461
-3.921296	闭}b|i4	-0.08616463
-4.222326	袭}x|i2	-0.08616462
-4.222326	仆}p|u2	-0.08616462
-3.745205	绪}x|v4	-0.5632859
-3.745205	壮}zh|ua4|ng	-0.1531114
-4.222326	啤}p|i2	-0.08616462
-4.222326	捣}d|ao3	-0.08616462
-4.222326	筒}t|o2|ng	-0.08616462
-3.620266	还}h|ua2|n	-0.2322927
-4.222326	馈}k|uei4	-0.08616462
-4.222326	稍}sh|ao4	-0.08616462
-4.222326	遗}uei4	-0.08616462
-3.377228	练}l|ia4|n	-0.6882246
-4.222326	篡}c|ua4|n	-0.08616462
-3.620266	钟}zh|o1|ng	-0.4841046
-3.444175	扬}ia2|ng	-0.3494061
-3.620266	吐}t|u3	-0.2111034
-3.620266	坡}p|o1	-0.3871946
-3.523356	讨}t|ao3	-0.4541414
-3.745205	储}ch|u2	-0.1531114
-4.222326	陈}ch|e2|n	-0.08616462
-4.222326	钰}v4	-0.08616462
-3.921296	侃}k|a3|n	-0.3871946
-3.921296	闲}j|ia4|n	-0.2111034
-4.222326	岱}d|ai4	-0.08616462
-3.921296	俄}e4	-0.08616462
-4.222326	邵}sh|ao4	-0.08616462
-4.222326	聪}c|o1|ng	-0.08616462
-3.921296	寸}c|ue4|n	-0.08616462
-4.222326	扁}b|ia3|n	-0.08616462
-3.620266	殖}zh|ii2	-0.3871946
-4.222326	蓦}m|o4	-0.08616463
-4.222326	撰}zh|ua4|n	-0.08616462
-4.222326	乙}i3	-0.08616462
-4.222326	肢}zh|ii1	-0.08616462
-4.222326	秒}m|iao3	-0.08616462
-3.745205	淫}i2|n	-0.3871946
-4.222326	肆}s|ii4	-0.08616461
-3.745205	赶}g|a3|n	-0.2322927
-3.444175	卷}j|va1|n	-0.5632859
-4.222326	膛}t|a2|ng	-0.08616462
-4.222326	柞}z|uo4	-0.08616462
-3.745205	抚}f|u3	-0.3871946
-4.222326	熬}ao1	-0.08616462
-3.745205	忘}ua2|ng	-0.2111034
-4.222326	然}r|a5|n	-0.08616462
-4.222326	苟}g|ou3	-0.08616462
-3.620266	帐}zh|a4|ng	-0.3292027
-3.620266	猛}m|e3|ng	-0.1830746
-4.222326	茗}m|i3|ng	-0.08616462
-4.222326	幌}h|ua3|ng	-0.08616462
-3.377228	响}x|ia3|ng	-0.3202478
-4.222326	亩}m|ou3	-0.08616462
-3.921296	软}r|ua3|n	-0.2111034
-4.222326	兹}c|ii2	-0.08616462
-3.921296	垦}k|e3|n	-0.3871946
-3.921296	竞}j|i4|ng	-0.1531114
-4.222326	拄}zh|u3	-0.08616462
-3.745205	垢}g|ou4	-0.5632859
-4.222326	碘}d|ia3|n	-0.08616462
-4.222326	姚}iao2	-0.08616462
-4.222326	捂}u4	-0.08616462
-3.745205	署}sh|u4	-0.5632859
-4.222326	暖}x|va1|n	-0.08616462
-3.921296	竟}j|i4|ng	-0.2111034
-3.921296	蔬}sh|u1	-0.08616462
-3.620266	菜}c|ai4	-0.2410666
-3.745205	督}d|u1	-0.2322927
-3.921296	誓}sh|ii4	-0.08616462
-3.745205	唱}ch|a4|ng	-0.2111034
-3.377228	季}j|i4	-0.5632859
-3.745205	捕}b|u3	-0.3871946
-4.222326	告}g|u4	-0.08616462
-3.268084	影}i3|ng	-0.5254973
-4.222326	劲}j|i4|n	-0.08616462
-3.921296	拳}q|va2|n	-0.08616463
-4.222326	漫}m|a4|n	-0.08616463
-3.921296	它}t|a1	-0.2622559
-3.921296	叛}p|a4|n	-0.08616462
-4.222326	射}ie4	-0.08616462
-4.222326	癌}ia2|n	-0.08616462
-4.222326	诵}s|o4|ng	-0.08616462
-3.745205	洁}j|ie2	-0.5632859
-4.222326	粗}c|u1	-0.08616462
-4.222326	谴}q|ia3|n	-0.08616462
-3.620266	恩}e1|n	-0.2111034
-3.921296	奸}j|ia1|n	-0.3871946
-4.222326	伞}s|a3|n	-0.08616462
-3.921296	纯}ch|ue2|n	-0.08616462
-3.921296	左}z|uo3	-0.2622559
-4.222326	徜}ch|a2	-0.08616463
-4.222326	徉}ng|ia2|ng	-0.08616462
-3.620266	惯}g|ua4|n	-0.3871947
-3.921296	竹}zh|u2	-0.2111034
-4.222326	诞}d|a4|n	-0.08616462
-4.222326	斜}x|ia2	-0.08616462
-4.222326	褒}b|ao1	-0.08616463
-3.921296	贬}b|ia3|n	-0.08616461
-3.745205	悉}x|i1	-0.5632859
-3.921296	荷}h|e2	-0.2622559
-3.745205	迁}q|ia1|n	-0.2622559
-3.921296	旬}x|v2|n	-0.3871946
-4.222326	盎}a4|ng	-0.08616463
-4.222326	妙}m|iao4	-0.08616462
-3.745205	伟}uei3	-0.2111034
-3.921296	锦}j|i3|n	-0.08616461
-4.222326	簇}c|u4	-0.08616462
-4.222326	倾}q|i1|ng	-0.08616463
-3.921296	相}x|ia4|ng	-0.08616462
-3.921296	膨}p|e2|ng	-0.3871946
-4.222326	胀}zh|a4|ng	-0.08616462
-3.921296	滑}g|u3	-0.08616463
-4.222326	盒}h|e2	-0.08616462
-3.921296	胖}p|a2|n	-0.08616462
-4.222326	抨}p|e1|ng	-0.08616462
-3.745205	隔}g|e2	-0.3871946
-4.222326	乍}zh|a4	-0.08616462
-4.222326	楷}j|ie1	-0.08616462
-3.921296	旁}b|a4|ng	-0.08616461
-4.222326	夥}h|uo3	-0.08616462
-3.620266	朋}p|e2|ng	-0.4841046
-3.921296	饥}j|i1	-0.08616461
-4.222326	饿}e4	-0.08616462
-3.377228	曲}q|v3	-0.6882246
-3.620266	脱}t|uo3	-0.2622559
-4.222326	闷}m|e4|n	-0.08616462
-4.222326	巢}ch|ao2	-0.08616462
-3.921296	奈}n|ai4	-0.3871946
-3.921296	燃}r|a2|n	-0.1830746
-4.222326	绍}sh|ao4	-0.08616462
-4.222326	洒}x|i3	-0.08616462
-4.222326	隧}s|uei4	-0.08616462
-4.222326	匡}k|ua1|ng	-0.08616462
-3.921296	惊}j|i1|ng	-0.08616462
-4.222326	愕}e4	-0.08616462
-4.222326	沈}sh|e3|n	-0.08616462
-4.222326	晴}q|i2|ng	-0.08616462
-4.222326	茅}m|ao2	-0.08616462
-3.620266	肯}k|e3|n	-0.3292027
-3.523356	遇}v4	-0.4541414
-4.222326	讳}h|uei4	-0.08616462
-4.222326	轮}l|ue2	-0.08616463
-4.222326	廓}n|k|uo4	-0.08616462
-3.745205	球}q|iu2	-0.3871946
-4.222326	吁}v4	-0.08616462
-4.222326	刚}g|a1|ng	-0.08616461
-4.222326	刚}g|a5|ng	-0.08616462
-4.222326	晋}j|i4|n	-0.08616462
-4.222326	拆}c|a1	-0.08616462
-3.620266	掉}d|iao4	-0.6882246
-4.222326	旅}l|u3	-0.08616462
-3.921296	践}j|ia4|n	-0.08616464
-4.222326	瞎}x|ia1	-0.08616462
-3.620266	污}u1	-0.1830747
-3.921296	寒}h|a2|n	-0.1830746
-4.222326	暄}x|va1|n	-0.08616462
-3.921296	凑}c|ou4	-0.08616461
-4.222326	肖}x|iao4	-0.08616462
-4.222326	戒}j|ie4	-0.08616462
-4.222326	拥}io1|ng	-0.08616462
-4.222326	柜}g|uei4	-0.08616462
-3.745205	霸}b|a4	-0.3080134
-4.222326	的}d|i2	-0.08616462
-3.921296	毡}zh|a1|n	-0.3871946
-3.745205	皮}p|i2	-0.3871946
-4.222326	菌}j|v1|n	-0.08616463
-4.222326	胜}x|i1|ng	-0.08616462
-3.921296	耸}s|o3|ng	-0.08616462
-4.222326	那}n|ei4	-0.08616463
-4.222326	锡}x|i1	-0.08616462
-4.222326	喔}o1	-0.08616462
-4.222326	砖}zh|ua1|n	-0.08616461
-3.921296	趋}q|v1	-0.08616462
-3.921296	柳}l|iu3	-0.08616461
-4.222326	鹤}h|ao2	-0.08616462
-4.222326	汲}j|i2	-0.08616462
-4.222326	人}r|e5|n	-0.08616462
-3.921296	芬}f|e1|n	-0.2622559
-4.222326	侦}zh|e1|n	-0.08616462
-3.921296	宝}b|ao3	-0.08616463
-3.620266	盆}p|e2|n	-0.3871947
-4.222326	狙}j|v1	-0.08616462
-3.921296	拓}t|a4	-0.08616463
-4.222326	涸}h|e2	-0.08616462
-3.620266	够}g|ou4	-0.6882246
-4.222326	戍}sh|u4	-0.08616461
-3.268084	刻}k|e4	-0.5632859
-3.523356	俗}s|u2	-0.4841046
-3.921296	扣}k|ou4	-0.2111034
-3.921296	池}ch|ii2	-0.3871946
-4.222326	楚}ch|u5	-0.08616462
-4.222326	冀}j|i4	-0.08616462
-4.222326	什}sh|e2	-0.08616462
-3.620266	醒}x|i1|ng	-0.2111034
-4.222326	亨}p|e1|ng	-0.08616462
-4.222326	祖}z|u3	-0.08616462
-4.222326	吵}ch|ao3	-0.08616462
-4.222326	挨|家}ai1	-0.08616463
-4.222326	挨}j|ia1|ai1	-0.08616463
-4.222326	藤}t|e2|ng	-0.08616462
-3.921296	欠}q|ia4|n	-0.2622559
-4.222326	朝}zh|ao1	-0.08616462
-4.222326	嫂}s|ao3	-0.08616462
-4.222326	丙}b|i3|ng	-0.08616462
-3.921296	甲}j|ia3	-0.08616462
-4.222326	璧}b|i4	-0.08616462
-4.222326	莫}m|u4	-0.08616462
-4.222326	击}j|i2	-0.08616462
-4.222326	徇}x|v4|n	-0.08616462
-4.222326	弊}b|i4	-0.08616462
-3.745205	妥}t|uo3	-0.2111034
-3.620266	辛}x|i1|n	-0.1653459
-4.222326	转}zh|ua4|n	-0.08616462
-4.222326	肴}iao2	-0.08616462
-4.222326	喷}f|e4|n	-0.08616461
-4.222326	雾}u4	-0.08616462
-3.921296	簿}b|o2	-0.08616462
-3.921296	辆}l|ia4|ng	-0.3871946
-4.222326	碟}d|ie2	-0.08616462
-4.222326	僵}j|ia1|ng	-0.08616464
-4.222326	翔}x|ia2|ng	-0.08616462
-3.523356	赖}l|ai4	-0.5632859
-4.222326	伙}h|uo5	-0.08616462
-4.222326	坯}p|ei1	-0.08616462
-4.222326	岳}ve4	-0.08616462
-3.620266	阵}zh|e4|n	-0.3292027
-4.222326	凤}f|e4|ng	-0.08616462
-3.921296	寓}v4	-0.3871946
-4.222326	磁}c|ii2	-0.08616462
-4.222326	橡}x|ia4|ng	-0.08616462
-3.745205	胶}j|iao1	-0.3871946
-4.222326	闷}m|e1|n	-0.08616462
-4.222326	焉}ia1|n	-0.08616462
-4.222326	石}d|a4|n	-0.08616462
-3.377228	衣}i1	-0.4541414
-4.222326	疏}sh|u1	-0.08616462
-3.921296	滥}l|a4|n	-0.08616463
-4.222326	勺}zh|uo2	-0.08616462
-4.222326	芥}g|ai4	-0.08616462
-4.222326	痼}g|u4	-0.08616462
-3.620266	疾}j|i2	-0.2622559
-3.921296	七}q|i1	-0.2622559
-4.222326	穑}s|e4	-0.08616462
-4.222326	圃}p|u3	-0.08616462
-4.222326	尉}v4	-0.08616462
-4.222326	仔}z|ii3	-0.08616462
-3.921296	绸}ch|ou2	-0.2622559
-3.921296	渡}d|u4	-0.1830746
-3.745205	毕}b|i4	-0.3871946
-4.222326	泡}p|ao4	-0.08616462
-3.921296	沫}m|o4	-0.08616462
-4.222326	茶}ch|a2	-0.08616462
-3.921296	授}sh|ou4	-0.1653459
-3.745205	灰}h|uei1	-0.08616463
-4.222326	灶}z|ao4	-0.08616462
-3.921296	灯}d|e1|ng	-0.2622559
-4.222326	恼}n|ao3	-0.08616462
-4.222326	铝}l|v3	-0.08616462
-3.745205	贷}d|ai4	-0.3871946
-4.222326	乐}iao4	-0.08616462
-3.921296	著}zh|ao1	-0.08616463
-4.222326	诊}zh|e1|n	-0.08616462
-3.921296	袋}d|ai4	-0.2111034
-3.745205	须}x|v1	-0.5632859
-4.222326	鄂}e4	-0.08616461
-4.222326	丁}zh|e1|ng	-0.08616462
-4.222326	监}j|ia1|n	-0.08616462
-3.377228	米}m|i3	-0.3414371
-3.921296	渴}h|e2	-0.08616462
-3.620266	欧}ou3	-0.1653459
-4.222326	菊}j|v2	-0.08616462
-3.745205	尝}ch|a2|ng	-0.3871946
-4.222326	凡}f|a2|n	-0.08616462
-3.620266	母}m|u3	-0.2622559
-3.921296	犹}iou2	-0.08616462
-4.222326	呕}ou3	-0.08616462
-3.921296	悄}q|iao3	-0.08616462
-3.921296	挤}j|i3	-0.2622559
-4.222326	浸}j|i4|n	-0.08616462
-4.222326	颂}r|o2|ng	-0.08616462
-3.523356	岭}l|i3|ng	-0.7851347
-3.921296	屈}q|v1	-0.2111034
-4.222326	嗽}s|ou4	-0.08616462
-3.745205	仓}c|a1|ng	-0.08616464
-4.222326	搓}c|uo1	-0.08616462
-4.222326	缠}ch|a2|n	-0.08616462
-3.921296	寻}x|i2|n	-0.2622559
-4.222326	憾}h|a4|n	-0.08616462
-3.921296	麦}m|ai4	-0.1653459
-3.745205	皇}h|ua2|ng	-0.08616462
-4.222326	诉}s|u5	-0.08616462
-3.377228	岸}a4|n	-0.9312627
-4.222326	只}q|i2	-0.08616462
-4.222326	炊}ch|uei1	-0.08616462
-3.921296	硷}j|ia3|n	-0.08616462
-4.222326	腿}t|uei3	-0.08616462
-4.222326	畿}j|i1	-0.08616462
-4.222326	杉}sh|a1|n	-0.08616462
-4.222326	姜}j|ia1|ng	-0.08616462
-4.222326	自}z|ii5	-0.08616462
-3.745205	复}f|ou3	-0.2622559
-4.222326	侧}z|e4	-0.08616462
-4.222326	企}q|i3	-0.08616462
-4.222326	懈}x|ie4	-0.08616462
-3.921296	澜}l|a4|n	-0.08616462
-3.620266	阔}k|uo4	-0.6882246
-4.222326	锰}m|e3|ng	-0.08616462
-4.222326	姣}j|iao1	-0.08616462
-4.222326	雏}ch|u2	-0.08616462
-4.222326	俺}a3|n	-0.08616462
-4.222326	惹}r|e3	-0.08616462
-4.222326	害}h|ai5	-0.08616462
-4.222326	掏}t|ao1	-0.08616462
-4.222326	敞}ch|a5|ng	-0.08616462
-3.444175	债}zh|ai4	-0.4541414
-3.745205	鸣}m|i2|ng	-0.5632859
-4.222326	璀}c|uei3	-0.08616463
-4.222326	璨}c|a4|n	-0.08616462
-4.222326	些}x|ie5	-0.08616462
-3.921296	珍}zh|e1|n	-0.1653459
-4.222326	锻}d|ua4|n	-0.08616462
-4.222326	酯}zh|ii3	-0.08616462
-4.222326	音}i4|n	-0.08616462
-3.444175	衷}zh|o1|ng	-0.5632859
-4.222326	摘}zh|e2	-0.08616462
-4.222326	扭}n|iu3	-0.08616462
-3.921296	涨}zh|a3|ng	-0.3871946
-4.222326	乌}u1	-0.08616462
-4.222326	缅}m|ia3|n	-0.08616462
-4.222326	散}s|a3|n	-0.08616462
-4.222326	沉}t|a2|n	-0.08616462
-4.222326	平}p|ia2|n	-0.08616462
-4.222326	厦}x|ia4	-0.08616461
-4.222326	吾}u2	-0.08616462
-3.921296	裕}v4	-0.3871946
-4.222326	猫}m|ao1	-0.08616462
-3.921296	泛}f|a4|n	-0.2622559
-4.222326	儒}r|u2	-0.08616461
-3.921296	融}r|o2|ng	-0.1319221
-3.745205	洽}q|ia4	-0.2622559
-4.222326	框}k|ua1|ng	-0.08616462
-3.745205	架}j|ia4	-0.3080134
-4.222326	就}j|iu5	-0.08616462
-4.222326	迅}x|v4|n	-0.08616463
-4.222326	寻}x|v2|n	-0.08616462
-3.620266	杂}z|a2	-0.2622559
-3.745205	岁}s|uei4	-0.3871946
-4.222326	蔬}s|u1	-0.08616462
-4.222326	遵}z|ue1|n	-0.08616462
-3.745205	娘}n|ia2|ng	-0.2622559
-3.745205	洛}l|uo4	-0.08616462
-4.222326	诏}zh|ao4	-0.08616462
-3.745205	迪}d|i2	-0.5632859
-4.222326	晶}j|i1|ng	-0.08616462
-3.921296	思}s|ii1	-0.08616464
-4.222326	贿}h	-0.08616463
-4.222326	赂}uei3|l|u4	-0.08616462
-3.745205	街}j|ie1	-0.3080134
-4.222326	翰}h|a4|n	-0.08616462
-4.222326	丛}c|o2|ng	-0.08616462
-4.222326	隅}v2	-0.08616463
-3.921296	庄}zh|ua1|ng	-0.2111034
-3.745205	临}l|i2|n	-0.3080134
-4.222326	粉}f|e3|n	-0.08616462
-4.222326	哎}ai1	-0.08616462
-4.222326	填}t|ia2|n	-0.08616463
-4.222326	邓}d|e4|ng	-0.08616461
-3.921296	喻}v4	-0.08616462
-3.444175	库}k|u4	-0.5632859
-3.921296	饶}r|ao2	-0.3871946
-4.222326	鸟}d|iao3	-0.08616462
-3.921296	洗}x|i3	-0.08616461
-4.222326	乳}r|u3	-0.08616462
-3.745205	旦}d|a4|n	-0.3871946
-3.745205	含}h|a2|n	-0.2111034
-4.222326	译}sh|e1|ng	-0.08616462
-4.222326	乔}j|iao1	-0.08616462
-3.745205	穆}m|u4	-0.3871946
-4.222326	钓}d|iao4	-0.08616462
-4.222326	尧}iao2	-0.08616462
-4.222326	堰}ia4|n	-0.08616462
-4.222326	铎}d|uo2	-0.08616462
-3.377228	哥}g|e1	-0.2622559
-4.222326	浚}j|v4|n	-0.08616462
-4.222326	刊}k|a4|n	-0.08616462
-3.921296	舍}sh|e3	-0.2622559
-4.222326	忆}i4	-0.08616463
-4.222326	臻}zh|e1|n	-0.08616462
-4.222326	黯}a4|n	-0.08616462
-3.745205	淡}d|a4|n	-0.3080134
-4.222326	背}b|ei1	-0.08616462
-4.222326	淹}ia1|n	-0.08616462
-3.921296	拒}j|v4	-0.08616461
-3.921296	恒}h|e2|ng	-0.3871946
-4.222326	酗}x|v4	-0.08616463
-4.222326	烘}h|o1|ng	-0.08616461
-3.921296	涵}h|a2|n	-0.3871946
-4.222326	议}c|a1|n	-0.08616462
-3.921296	葱}c|o1|ng	-0.08616462
-4.222326	痕}h|e2|n	-0.08616462
-3.745205	丹}d|a1|n	-0.2622559
-3.745205	粮}l|ia2|ng	-0.3080134
-3.921296	昂}a2|ng	-0.2622559
-4.222326	钦}q|i1|n	-0.08616461
-4.222326	渴}k|e3	-0.08616463
-4.222326	胚}p|ei1	-0.08616463
-3.921296	胎}t|ai1	-0.3871946
-4.222326	招}sh|ao2	-0.08616462
-3.921296	召}sh|ao4	-0.2622559
-4.222326	储}ch|u3	-0.08616462
-4.222326	氮}d|a4|n	-0.08616462
-3.523356	惠}h|uei4	-0.3871946
-4.222326	努}n|u3	-0.08616461
-4.222326	盯}ch|e2|ng	-0.08616462
-4.222326	莆}p|u2	-0.08616462
-4.222326	盲}m|a2|ng	-0.08616462
-3.745205	杆}g|a3|n	-0.2622559
-3.745205	逝}sh|ii4	-0.2622559
-4.222326	狱}v4	-0.08616462
-4.222326	讶}ia4	-0.08616462
-4.222326	意}i5	-0.08616462
-4.222326	萄}t|ao5	-0.08616462
-3.921296	难}n|a4|n	-0.3871946
-4.222326	洵}x|v2|n	-0.08616462
-4.222326	韩}h|a2|n	-0.08616462
-4.222326	垃}l	-0.08616463
-4.222326	圾}a1|j|i1	-0.08616462
-4.222326	缆}l|a4|n	-0.08616462
-4.222326	猎}l|ie4	-0.08616462
-4.222326	曹}c|ao2	-0.08616462
-4.222326	镌}j|va1|n	-0.08616463
-3.745205	荣}r|o2|ng	-0.2622559
-4.222326	誉}v4	-0.08616462
-3.745205	梁}l|ia2|ng	-0.5632859
-4.222326	葡}p|u2	-0.08616461
-4.222326	萄}t|ao2	-0.08616462
-3.377228	牙}ia2	-0.4541414
-3.921296	寿}sh|ou4	-0.2622559
-4.222326	磷}l|i2|n	-0.08616462
-3.745205	茨}c|ii2	-0.08616463
-3.921296	畅}ch|a4|ng	-0.2111034
-4.222326	贩}f|a4|n	-0.08616463
-3.921296	壤}r|a3|ng	-0.3871946
-4.222326	悠}iou1	-0.08616463
-3.620266	云}v2|n	-0.3292027
-3.921296	什}sh|e2|n	-0.3871946
-4.222326	待}d|ai1	-0.08616462
-4.222326	牟}m|ou2	-0.08616462
-4.222326	焚}f|e4|n	-0.08616462
-4.222326	飘}p|iao1	-0.08616462
-4.222326	甚}sh|e4|n	-0.08616462
-4.222326	尽}j|i3|n	-0.08616462
-4.222326	振}zh|e4|n	-0.08616462
-3.921296	敷}f|u1	-0.08616461
-4.222326	衍}ia3|n	-0.08616462
-3.523356	异}i4	-0.2902846
-4.222326	稀}x|i1	-0.08616462
-4.222326	杠}g|a1|ng	-0.08616462
-3.745205	缘}va2|n	-0.5632859
-4.222326	肺}f	-0.08616463
-4.222326	腑}ei4|f|u3	-0.08616462
-3.921296	都}d|ou1	-0.2622559
-3.921296	宅}zh|ai2	-0.2622559
-3.921296	傲}ao4	-0.08616462
-4.222326	枚}m|ei2	-0.08616462
-4.222326	葩}p|a1	-0.08616462
-3.745205	锁}s|uo3	-0.5632859
-3.921296	释}sh|ii4	-0.08616462
-3.921296	泊}b|o2	-0.08616461
-3.921296	辨}b|ia4|n	-0.2622559
-3.620266	塞}s|ai1	-0.2111034
-3.921296	捉}zh|uo1	-0.3871946
-4.222326	卑}b|ei1	-0.08616461
-4.222326	鄙}b|i3	-0.08616462
-4.222326	蜀}sh|u3	-0.08616461
-3.921296	巾}j|i1|n	-0.3871946
-4.222326	肝}g|a1|n	-0.08616462
-3.921296	峻}j|v4|n	-0.08616461
-4.222326	讷}n|e4	-0.08616462
-4.222326	枯}k|u1	-0.08616463
-3.921296	竭}j|ie2	-0.08616462
-3.921296	滩}t|a1|n	-0.3871946
-4.222326	亭}t|i2|ng	-0.08616462
-3.921296	韦}uei2	-0.2622559
-3.745205	坐}z|uo4	-0.2622559
-4.222326	恐}k|o3|ng	-0.08616462
-3.523356	怕}p|a4	-0.7851347
-3.921296	孩}h|ai2	-0.2622559
-4.222326	昆}k|ue1|n	-0.08616464
-3.921296	彬}b|i1|n	-0.08616463
-4.222326	铮}zh|e1|ng	-0.08616462
-3.921296	酵}j|iao4	-0.08616462
-4.222326	疗}l|iao2	-0.08616462
-4.222326	苛}h|e2	-0.08616463
-3.745205	谓}uei4	-0.5632859
-4.222326	匈}x|io1|ng	-0.08616461
-4.222326	侵}q|i3|n	-0.08616462
-3.921296	塞}s|ai4	-0.08616461
-4.222326	舷}x|ia2|n	-0.08616462
-3.620266	掌}zh|a3|ng	-0.3080134
-3.921296	躁}z|ao4	-0.3871946
-4.222326	骆}l|uo4	-0.08616462
-4.222326	忠}zh|o1|ng	-0.08616462
-4.222326	姑}g|u1	-0.08616463
-3.921296	凭}p|i2|ng	-0.2111034
-4.222326	熏}x|v4|n	-0.08616462
-3.745205	陶}t|ao2	-0.3080134
-3.921296	窟}k|u1	-0.08616461
-4.222326	薄}b|o2	-0.08616463
-3.921296	谐}x|ie2	-0.08616462
-3.921296	孔}k|o3|ng	-0.2622559
-4.222326	朱}zh|u1	-0.08616462
-4.222326	鲜}x|ia4|n	-0.08616462
-4.222326	撑}ch	-0.08616463
-4.222326	腰}e1|ng|iao1	-0.08616462
-4.222326	北}b|ei4	-0.08616462
-4.222326	奥}ao4	-0.08616463
-3.921296	蒸}zh|e1|ng	-0.08616462
-4.222326	馏}l|iu4	-0.08616462
-4.222326	梨}l|i2	-0.08616462
-3.444175	轻}q|i1|ng	-0.2111034
-4.222326	鼓}g|u3	-0.08616462
-3.921296	缔}d|i4	-0.08616463
-4.222326	揣}ch|uai4	-0.08616462
-4.222326	骄}j|iao1	-0.08616463
-4.222326	魔}m|o2	-0.08616462
-3.745205	晓}x|iao3	-0.2622559
-4.222326	霖}l|i2|n	-0.08616462
-4.222326	锡}x|i2	-0.08616462
-4.222326	咬}iao3	-0.08616463
-4.222326	省}sh|e4|ng	-0.08616462
-4.222326	圈}j|va1|n	-0.08616462
-3.921296	危}uei2	-0.08616462
-4.222326	奶}n|ai5	-0.08616462
-4.222326	壶}h|u2	-0.08616462
-4.222326	绚}x|va4|n	-0.08616462
-3.921296	雀}q|iao3	-0.08616462
-3.921296	拨}b|o1	-0.08616463
-4.222326	毗}p|i2	-0.08616462
-4.222326	伺}c|ii4	-0.08616462
-4.222326	牡}m|ou3	-0.08616462
-4.222326	摄}n|ie4	-0.08616461
-4.222326	钸}b|u1	-0.08616462
-4.222326	袱}f|u2	-0.08616462
-4.222326	侯}h|ou2	-0.08616462
-3.444175	脚}j|iao3	-0.4541414
-4.222326	苍}c|a1|ng	-0.08616463
-4.222326	凉}l|ia2|ng	-0.08616462
-3.745205	煌}h|ua2|ng	-0.5632859
-3.921296	恨}h|e4|n	-0.3871946
-3.921296	拦}l|a2|n	-0.2622559
-4.222326	扪}m|e2|n	-0.08616462
-3.921296	均}j|v1|n	-0.2111034
-4.222326	邯}h|a2|n	-0.08616462
-4.222326	淌}t|a3|ng	-0.08616462
-4.222326	酝}v4|n	-0.08616463
-3.921296	酿}n|ia4|ng	-0.08616462
-4.222326	帆}f|a2|n	-0.08616462
-3.921296	渣}zh|a1	-0.3871946
-4.222326	堤}t|i2	-0.08616462
-4.222326	逼}b|i1	-0.08616462
-4.222326	蒙}m|e2|ng	-0.08616462
-4.222326	傻}sh|a3	-0.08616462
-4.222326	榨}zh|a4	-0.08616462
-4.222326	涪}f|u2	-0.08616463
-3.921296	陵}l|i2|ng	-0.3871946
-4.222326	崛}j|ve2	-0.08616463
-3.921296	奔}b|e1|n	-0.08616464
-3.921296	驰}ch|ii2	-0.08616461
-4.222326	溯}s|u4	-0.08616462
-4.222326	剖}p|ou1	-0.08616462
-4.222326	涨}zh|a4|ng	-0.08616462
-4.222326	羽}v3	-0.08616461
-4.222326	糖}t|a2|ng	-0.08616462
-3.921296	尿}n|iao4	-0.08616462
-4.222326	启}q|i3	-0.08616462
-4.222326	情}q|i5|ng	-0.08616462
-4.222326	垃}l|e4	-0.08616462
-3.921296	禁}j|i4|n	-0.08616461
-3.921296	娱}v2	-0.3871946
-3.620266	邦}b|a1|ng	-0.2902846
-4.222326	通}t|o4|ng	-0.08616462
-3.921296	仇}ch|ou2	-0.08616464
-3.921296	敌}d|i2	-0.08616462
-4.222326	忾}k|ai4	-0.08616462
-4.222326	秭}z|ii3	-0.08616462
-3.745205	骗}p|ia4|n	-0.5632859
-4.222326	堵}d|u3	-0.08616462
-4.222326	塞}s|e4	-0.08616462
-4.222326	孜}z|ii1	-0.08616462
-4.222326	岗}g|a3|ng	-0.08616462
-4.222326	堪}k|a4|n	-0.08616462
-4.222326	辐}f|u2	-0.08616462
-4.222326	呵}a1	-0.08616462
-3.921296	牢}l|ao2	-0.08616462
-3.921296	徽}h|uei1	-0.2622559
-3.921296	慧}h|uei4	-0.08616461
-4.222326	甩}sh|uai3	-0.08616462
-4.222326	阐}ch|a3|n	-0.08616463
-4.222326	闯}ch|ua3|ng	-0.08616462
-3.745205	乎}h|u1	-0.5632859
-4.222326	萝}l|uo2	-0.08616463
-3.745205	宿}s|u4	-0.5632859
-4.222326	淘}t	-0.08616463
-4.222326	汰}ao2|d|ai4	-0.08616462
-3.921296	轰}h|o1|ng	-0.08616463
-4.222326	难}n|a5|n	-0.08616462
-3.745205	驳}b|o2	-0.3080134
-4.222326	窿}l|o5|ng	-0.08616462
-4.222326	槛}j|ia4|n	-0.08616462
-4.222326	翁}ue1|ng	-0.08616462
-3.921296	浦}p|u3	-0.3871946
-3.921296	斥}ch|ii4	-0.3871946
-4.222326	葆}b|ao3	-0.08616462
-4.222326	董}d|o3|ng	-0.08616464
-3.745205	尘}ch|e2|n	-0.2622559
-4.222326	竣}j|v4|n	-0.08616462
-4.222326	扛}k|a2|ng	-0.08616462
-3.921296	闪}sh|a3|n	-0.08616462
-4.222326	孤}g|u1	-0.08616462
-4.222326	摊}t|a1|n	-0.08616462
-3.921296	屿}v3	-0.3871946
-4.222326	见}x|ia4|n	-0.08616462
-4.222326	莞}g|ua3|n	-0.08616462
-4.222326	逮}d|ai4	-0.08616462
-4.222326	幽}iou1	-0.08616462
-4.222326	夕}x|i1	-0.08616462
-4.222326	谊}i4	-0.08616462
-4.222326	上}sh|a5|ng	-0.08616462
-3.921296	厉}l|i4	-0.3871946
-3.921296	剑}j|ia4|n	-0.2622559
-3.921296	胜}sh|e4|ng	-0.08616462
-4.222326	绥}s|uei1	-0.08616462
-3.921296	聊}l|iao2	-0.08616461
-3.745205	缩}s|u4	-0.2111034
-4.222326	摄}sh|e4	-0.08616462
-4.222326	泊}p|o1	-0.08616462
-3.921296	伏}f|u2	-0.3871946
-4.222326	戚}c|u4	-0.08616462
-4.222326	裙}q|v2|n	-0.08616462
-3.745205	汹}x|io1|ng	-0.08616463
-4.222326	腾}t|e1|ng	-0.08616462
-4.222326	柄}b|i4|ng	-0.08616462
-4.222326	好}h|ao4	-0.08616462
-4.222326	帘}l|ia2|n	-0.08616462
-3.921296	系}j|i4	-0.08616463
-3.921296	幻}h|ua4|n	-0.2111034
-4.222326	钥}iao4	-0.08616463
-4.222326	匙}sh|ii5	-0.08616462
-4.222326	屡}l|v3	-0.08616462
-4.222326	悸}j|i4	-0.08616462
-4.222326	歪}uai1	-0.08616462
-4.222326	募}m|u4	-0.08616464
-4.222326	铭}m|i2|ng	-0.08616462
-3.921296	赠}z|e4|ng	-0.2111034
-4.222326	堑}q|ia4|n	-0.08616462
-4.222326	我}e3	-0.08616462
-4.222326	巩}g|o3|ng	-0.08616462
-3.921296	秩}zh|ii4	-0.2622559
-3.921296	井}j|i3|ng	-0.08616463
-4.222326	骚}s|ao1	-0.08616462
-4.222326	笨}b|e4|n	-0.08616462
-4.222326	屏}p|i2|ng	-0.08616462
-3.921296	铜}t|o2|ng	-0.2622559
-3.921296	羊}x|ia2|ng	-0.08616462
-4.222326	翟}zh|e2	-0.08616462
-4.222326	灸}j|iu3	-0.08616462
-4.222326	烦}f|a2|n	-0.08616462
-4.222326	轿}j|iao4	-0.08616463
-4.222326	帷}uei2	-0.08616462
-4.222326	犬}q|va3|n	-0.08616463
-4.222326	置}zh|ii5	-0.08616462
-4.222326	衅}x|i4|n	-0.08616462
-4.222326	辜}g|u1	-0.08616462
-4.222326	捆}k|ue3|n	-0.08616462
-4.222326	迹}q|i2	-0.08616462
-4.222326	禄}l|u4	-0.08616462
-4.222326	趋}c|u4	-0.08616462
-4.222326	晤}u4	-0.08616462
-4.222326	梓}z|ii3	-0.08616462
-4.222326	瓷}c|ii2	-0.08616462
-4.222326	惭}c|a2|n	-0.08616462
-4.222326	丘}q|iu1	-0.08616462
-4.222326	缩}s|uo1	-0.08616464
-4.222326	酬}ch|ou2	-0.08616462
-4.222326	参}c|e1	-0.08616463
-4.222326	差}n|c|ii1	-0.08616462
-3.921296	喇}l	-0.08616462
-4.222326	嘛}a1|m|a2	-0.08616462
-3.745205	廷}t|i2|ng	-0.5632859
-3.745205	木}m|u4	-0.1830746
-4.222326	曝}p|u4	-0.08616462
-4.222326	哼}h|e1|ng	-0.08616462
-4.222326	撒}s|a1	-0.08616462
-4.222326	艳}ia4|n	-0.08616462
-4.222326	詹}zh|a1|n	-0.08616462
-4.222326	虽}s|uei1	-0.08616462
-4.222326	缮}sh|a4|n	-0.08616462
-3.921296	噪}z|ao4	-0.2622559
-3.921296	磋}c|uo1	-0.2622559
-4.222326	猴}h|ou2	-0.08616462
-4.222326	咨}z|ii1	-0.08616462
-3.921296	恰}q|ia4	-0.1830746
-4.222326	陛}b|i4	-0.08616462
-3.523356	处}ch|u4	-0.5632859
-4.222326	鸿}h|o2|ng	-0.08616462
-3.921296	诫}j|ie4	-0.3871946
-3.921296	辟}p|i4	-0.2622559
-4.222326	丑}ch|ou3	-0.08616463
-4.222326	械}x|ie4	-0.08616462
-4.222326	搏}b|o2	-0.08616462
-4.222326	厄}ai4	-0.08616462
-4.222326	蔽}b|i4	-0.08616462
-4.222326	驷}s|ii4	-0.08616462
-4.222326	瘤}l|iu2	-0.08616462
-4.222326	浮}f|u2	-0.08616462
-4.222326	汨}g|u3	-0.08616462
-4.222326	兹}z|ii1	-0.08616462
-3.921296	晨}ch|e2|n	-0.3871946
-4.222326	啊}a5	-0.08616462
-4.222326	陟}zh|ii4	-0.08616462
-3.921296	齐}q|i2	-0.2622559
-4.222326	烽}f|e1|ng	-0.08616463
-4.222326	陆}l|iu4	-0.08616462
-3.921296	涝}l|ao4	-0.3871946
-4.222326	携}x|ie2	-0.08616463
-4.222326	俏}q|iao4	-0.08616462
-4.222326	拐}g|uai3	-0.08616461
-4.222326	活}h|uo5	-0.08616462
-4.222326	痰}t|a2|n	-0.08616462
-4.222326	阪}b|a3|n	-0.08616462
-4.222326	强}q|ia3|ng	-0.08616462
-4.222326	钻}z|ua1|n	-0.08616464
-4.222326	昭}zh|ao1	-0.08616462
-4.222326	桐}t|o2|ng	-0.08616462
-4.222326	屠}ch|u2	-0.08616462
-4.222326	蹒}p|a2|n	-0.08616463
-4.222326	跚}sh|a1|n	-0.08616462
-3.921296	弟}d|i4	-0.08616462
-4.222326	舱}c|a1|ng	-0.08616462
-3.745205	予}v2	-0.5632859
-4.222326	与}v4	-0.08616462
-4.222326	翠}c|uei4	-0.08616463
-4.222326	缶}f|ou3	-0.08616462
-4.222326	菇}g|u1	-0.08616462
-4.222326	粒}l|i4	-0.08616462
-4.222326	俱}j|v1	-0.08616462
-4.222326	钾}j|ia3	-0.08616462
-4.222326	滤}l|v4	-0.08616462
-3.921296	慌}h|ua1|ng	-0.08616462
-3.921296	葬}z|a4|ng	-0.08616462
-3.921296	挚}zh|ii4	-0.3871946
-4.222326	俞}sh|u1	-0.08616462
-4.222326	邱}q|iu1	-0.08616462
-4.222326	嘛}a3|m|a5	-0.08616462
-4.222326	哄}h|o3|ng	-0.08616462
-3.745205	抬}t|ai2	-0.2622559
-4.222326	勘}k|a1|n	-0.08616462
-4.222326	棋}q|i2	-0.08616462
-4.222326	祉}zh|ii3	-0.08616462
-4.222326	氓}m|a2|ng	-0.08616462
-3.377228	况}k|ua4|ng	-0.6302327
-4.222326	虹}q|ia2|ng	-0.08616462
-4.222326	麻}l|i4|n	-0.08616462
-4.222326	菲}f|ei3	-0.08616462
-3.620266	测}c|e4	-0.3871946
-4.222326	铺}p|u1	-0.08616462
-4.222326	壑}h|uo4	-0.08616462
-4.222326	煎}j|ia1|n	-0.08616463
-4.222326	饼}b|i3|ng	-0.08616462
-4.222326	暴}p|u4	-0.08616462
-3.921296	陋}l|ou4	-0.08616462
-4.222326	赋}f|u4	-0.08616462
-4.222326	垠}i2|n	-0.08616462
-4.222326	力}l|i5	-0.08616462
-4.222326	亿}l|iu4	-0.08616462
-4.222326	鲍}b|ao4	-0.08616462
-4.222326	墓}m|u4	-0.08616462
-4.222326	同}t|o5|ng	-0.08616462
-3.444175	些}x|ie1	-0.8643159
-3.921296	得}d|e5	-0.3871946
-4.222326	帕}p|a4	-0.08616462
-3.620266	踏}t|a4	-0.1830746
-4.222326	墅}sh|u4	-0.08616462
-4.222326	答}d|a1	-0.08616462
-4.222326	彤}t|o2|ng	-0.08616462
-4.222326	铅}q|ia1|n	-0.08616463
-3.745205	忙}m|a2|ng	-0.5632859
-4.222326	铺}p|u4	-0.08616462
-4.222326	妄}ua4|ng	-0.08616462
-4.222326	爽}sh|ua3|ng	-0.08616462
-4.222326	愧}k|uei4	-0.08616462
-4.222326	妹}m|ei4	-0.08616462
-4.222326	奢}sh|a2	-0.08616462
-4.222326	烤}k|ao3	-0.08616462
-3.921296	慰}uei4	-0.2111034
-3.921296	肠}ch|a2|ng	-0.3871946
-3.745205	旋}x|va2|n	-0.2622559
-3.921296	尾}uei3	-0.08616462
-3.921296	貌}m|ao4	-0.3871946
-4.222326	隶}l|i4	-0.08616462
-4.222326	罕}h|a3|n	-0.08616462
-4.222326	丈}zh|a4|ng	-0.08616463
-3.921296	夫}f|u5	-0.3871946
-4.222326	磅}p|a1|ng	-0.08616462
-4.222326	柏}b|ai3	-0.08616462
-4.222326	咪}m|i1	-0.08616462
-4.222326	涣}h|ua4|n	-0.08616462
-4.222326	秆}g|a3|n	-0.08616462
-3.745205	腾}t|e2|ng	-0.2622559
-3.921296	诸}zh|u1	-0.1830746
-4.222326	遁}d|ue4|n	-0.08616462
-4.222326	血}x|ie3	-0.08616462
-3.745205	昌}ch|a1|ng	-0.5632859
-4.222326	矫}j|iao3|r	-0.08616463
-4.222326	揉}ou2	-0.08616462
-4.222326	乃}n|ai3	-0.08616463
-4.222326	论}l|ue2|n	-0.08616462
-4.222326	杨}ia2|ng	-0.08616462
-4.222326	俄}e2	-0.08616462
-3.921296	衬}ch|e4|n	-0.2622559
-4.222326	氨}a1|n	-0.08616462
-4.222326	漂}p|iao4	-0.08616463
-4.222326	亮}l|ia5|ng	-0.08616462
-4.222326	栏}l|a2|n	-0.08616462
-4.222326	懂}d|o3|ng	-0.08616462
-4.222326	辱}r|u3	-0.08616462
-4.222326	佯}ia2|ng	-0.08616462
-4.222326	旋}x|va4|n	-0.08616462
-4.222326	披}p|ei1	-0.08616462
-4.222326	是}sh|ii5	-0.08616462
-4.222326	灌}g|ua1|n	-0.08616462
-3.745205	盛}sh|e4|ng	-0.08616462
-4.222326	蹂}r|ou2	-0.08616463
-4.222326	躏}l|i4|n	-0.08616462
-4.222326	笼}l|o3|ng	-0.08616463
-3.921296	罩}zh|ao4	-0.3871946
-4.222326	惧}j|v4	-0.08616462
-4.222326	雇}g|u4	-0.08616463
-3.921296	悦}ve4	-0.3871946
-4.222326	鹏}p|e2|ng	-0.08616462
-3.921296	昧}m|ei4	-0.08616462
-3.921296	署}sh|u3	-0.3871946
-4.222326	殴}ou1	-0.08616462
-4.222326	虐}n|ve4	-0.08616462
-4.222326	篷}p|e2|ng	-0.08616462
-3.921296	矛}m|ao2	-0.2622559
-3.921296	契}q|i4	-0.08616462
-4.222326	剿}ch|ao1	-0.08616462
-4.222326	粤}ve4	-0.08616462
-3.921296	只}zh|ii3	-0.2622559
-4.222326	汕}sh|a4|n	-0.08616463
-3.921296	惶}h|ua2|ng	-0.08616463
-4.222326	贞}zh|e1|n	-0.08616462
-4.222326	宛}ua3|n	-0.08616463
-4.222326	纠}j|iu3	-0.08616462
-4.222326	贮}zh|u3	-0.08616461
-4.222326	汤}sh|a1|ng	-0.08616462
-4.222326	跑}p|ao3	-0.08616462
-3.921296	肤}f|u1	-0.08616463
-4.222326	白}b|ai5	-0.08616462
-4.222326	丸}ua2|n	-0.08616462
-4.222326	幼}iou4	-0.08616462
-4.222326	渗}sh|e4|n	-0.08616463
-3.921296	透}t|ou4	-0.08616464
-4.222326	坟}f|e4|n	-0.08616462
-4.222326	柏}b|o2	-0.08616462
-4.222326	雁}ia4|n	-0.08616462
-4.222326	摞}l|uo2	-0.08616462
-4.222326	册}c|e4	-0.08616462
-4.222326	您}n|i2|n	-0.08616462
-4.222326	谎}h|ua3|ng	-0.08616462
-3.620266	勇}io3|ng	-0.1953091
-4.222326	泼}p|o5	-0.08616462
-4.222326	陀}t|uo2	-0.08616462
-4.222326	炬}j|v4	-0.08616462
-4.222326	祁}q|i2	-0.08616463
-3.745205	张}zh|a1|ng	-0.5632859
-4.222326	勒}l|e4	-0.08616462
-4.222326	拮}j	-0.08616463
-4.222326	据}ie2|j|v1	-0.08616462
-4.222326	君}j|v1|n	-0.08616462
-4.222326	铃}l|i2|ng	-0.08616462
-4.222326	湛}d|a1|n	-0.08616462
-4.222326	键}j|ia4|n	-0.08616462
-4.222326	奕}l|i3	-0.08616462
-4.222326	锣}l|uo2	-0.08616462
-4.222326	舆}v2	-0.08616462
-3.921296	盾}d|ue4|n	-0.3871946
-4.222326	滋}z|ii1	-0.08616462
-3.921296	抄}ch|ao1	-0.08616462
-4.222326	蔓}m|a2|n	-0.08616462
-4.222326	议}d|uo1	-0.08616462
-4.222326	着}zh|uo2	-0.08616462
-4.222326	羊}ia2|ng	-0.08616462
-4.222326	戎}r|o2|ng	-0.08616462
-3.921296	虎}h|u3	-0.3871946
-4.222326	煞|有}sh	-0.08616463
-4.222326	介}a1|iou3|j	-0.08616463
-4.222326	事}ie1|sh|ii4	-0.08616462
-3.921296	惑}h|uo4	-0.3871946
-4.222326	跑}p|ao2	-0.08616462
-4.222326	岚}l|a2|n	-0.08616463
-4.222326	钢}g|a4|ng	-0.08616463
-4.222326	叩}k|ou4	-0.08616462
-4.222326	宛}va1|n	-0.08616462
-4.222326	渲}x|va4|n	-0.08616463
-4.222326	汁}zh|ii1	-0.08616462
-4.222326	淳}ch|ue2|n	-0.08616462
-4.222326	吨}t|ue3|n	-0.08616462
-4.222326	筛}sh|ai1	-0.08616462
-4.222326	骏}j|v4|n	-0.08616462
-4.222326	晰}x|i1	-0.08616462
-4.222326	雯}ue2|n	-0.08616462
-4.222326	澜}l|a2|n	-0.08616462
-4.222326	肮}a1|ng	-0.08616462
-4.222326	佛}f|u2	-0.08616462
-4.222326	烃}j|i3|ng	-0.08616462
-4.222326	话}h|ua5	-0.08616462
-4.222326	蝶}d|ie2	-0.08616462
-3.921296	逻}l|uo2	-0.08616463
-4.222326	伪}uei3	-0.08616462
-4.222326	几}j|i1	-0.08616462
-4.222326	辄}zh|e2	-0.08616462
-4.222326	廖}l|iao4	-0.08616462
-3.921296	叮}d|i1|ng	-0.08616463
-4.222326	桩}zh|ua1|ng	-0.08616462
-4.222326	疲}p|i2	-0.08616463
-4.222326	倦}j|va4|n	-0.08616462
-3.921296	怨}va4|n	-0.08616461
-4.222326	彦}ia4|n	-0.08616462
-4.222326	迭}d|ie2	-0.08616462
-4.222326	诿}n|i4	-0.08616462
-3.921296	篮}l|a2|n	-0.08616462
-4.222326	嫖}p|iao1	-0.08616462
-4.222326	地}d|e5	-0.08616462
-4.222326	丽}l|i3	-0.08616462
-4.222326	秉}b|i3|ng	-0.08616462
-4.222326	假}x|ia2	-0.08616462
-3.921296	观}g|ua4|n	-0.3871946
-4.222326	怡}i2	-0.08616462
-3.921296	叠}d|a2	-0.3871946
-4.222326	量}l|ia5|ng	-0.08616462
-4.222326	掺}ch|a4|n	-0.08616462
-4.222326	卓}zh|uo1	-0.08616462
-4.222326	究}j|iu5	-0.08616462
-4.222326	滴}t|i2	-0.08616462
-3.921296	钊}zh|ao1	-0.3871946
-4.222326	葱}z|o3|ng	-0.08616462
-4.222326	驹}j|v1	-0.08616462
-4.222326	囿}iou4	-0.08616462
-3.921296	浸}j|i1|n	-0.08616461
-4.222326	西}x|i5	-0.08616462
-4.222326	吵}ch|ao1	-0.08616462
-3.921296	俭}j|ia4|n	-0.08616462
-4.222326	搭}d|a1	-0.08616462
-4.222326	抢}q|ia3|ng	-0.08616462
-4.222326	罔}ua3|ng	-0.08616463
-4.222326	绿}l|v4	-0.08616462
-3.620266	着}zh|e5	-0.6882246
-4.222326	愁}ch|ou2	-0.08616462
-4.222326	糊}h|u2	-0.08616462
-4.222326	乎}h|u5	-0.08616462
-3.921296	郎}l|a2|ng	-0.3871946
-4.222326	羞}x|iu1	-0.08616462
-4.222326	药}ve1	-0.08616462
-4.222326	累}l|ei2	-0.08616462
-4.222326	殷}i1|n	-0.08616462
-3.921296	儿}e2|r	-0.08616461
-4.222326	湄}m|ei2	-0.08616463
-4.222326	遍}p|ia4|n	-0.08616462
-3.921296	炮}p|ao4	-0.3871946
-3.921296	棚}p|e2|ng	-0.3871946
-4.222326	歇}x|ie1	-0.08616462
-4.222326	削}x|iao1	-0.08616462
-4.222326	搬}b|a1|n	-0.08616462
-3.921296	方}f|a5|ng	-0.3871946
-4.222326	岗}g|a1|ng	-0.08616462
-4.222326	靳}j|i4|n	-0.08616462
-4.222326	铨}q|va2|n	-0.08616462
-4.222326	担}d|a4|n	-0.08616463
-4.222326	剪}j|ia3|n	-0.08616462
-4.222326	劲}j|i4|ng	-0.08616462
-3.921296	圭}g|uei1	-0.3871946
-4.222326	遏}e4	-0.08616463
-4.222326	渝}v2	-0.08616462
-4.222326	揭}q|i4	-0.08616462
-3.523356	弃}q|i4	-0.5632859
-4.222326	偷}t|ou1	-0.08616462
-4.222326	奠}d|ia4|n	-0.08616462
-4.222326	吴}u2	-0.08616463
-4.222326	挟}j|ia2	-0.08616463
-4.222326	折}zh|e2	-0.08616461
-3.745205	慨}k|ai4	-0.5632859
-4.222326	涯}ia2	-0.08616462
-4.222326	迷}m|i2	-0.08616463
-4.222326	畴}ch|ou2	-0.08616462
-3.921296	圣}sh|e4|ng	-0.08616462
-4.222326	斜}ie2	-0.08616462
-4.222326	狮}sh|ii1	-0.08616462
-4.222326	傣}d|ai3	-0.08616462
-4.222326	蔡}c|ai4	-0.08616462
-4.222326	尼}n|i3	-0.08616462
-4.222326	捍}g|a3|n	-0.08616462
-4.222326	唇}ch|ue2|n	-0.08616462
-4.222326	蜂}f|e1|ng	-0.08616463
-3.620266	乏}f|a2	-0.3871946
-3.921296	址}zh|ii3	-0.3871946
-3.921296	睦}m|u4	-0.08616462
-4.222326	琼}q|io2|ng	-0.08616462
-3.921296	却}q|ve4	-0.3871946
-3.921296	墙}q|ia2|ng	-0.3871946
-4.222326	岐}q|i2	-0.08616462
-3.921296	伐}f|a2	-0.3871946
-4.222326	谷}v4	-0.08616462
-4.222326	楚}ch|u3	-0.08616462
-4.222326	棋}j|i1	-0.08616462
-4.222326	沓}d|a2	-0.08616462
-4.222326	筋}j|i1|n	-0.08616462
-3.921296	鸡}j|i1	-0.3871946
-4.222326	琛}ch|e1|n	-0.08616462
-3.921296	覆}f|u4	-0.08616462
-4.222326	慈}c|ii2	-0.08616463
-4.222326	鸠}j|iu1	-0.08616462
-4.222326	犷}g|ua3|ng	-0.08616462
-4.222326	苹}p|i2|ng	-0.08616462
-4.222326	稚}zh|ii4	-0.08616463
-3.921296	嫩}n|e4|n	-0.3871946
-4.222326	轧}zh|a2	-0.08616462
-4.222326	贯}g|ua1|n	-0.08616462
-4.222326	爷}ie2	-0.08616462
-4.222326	哲}zh|e2	-0.08616462
-4.222326	峙}zh|ii4	-0.08616462
-4.222326	匮}g|uei4	-0.08616462
-3.921296	鸭}ia1	-0.3871946
-4.222326	鞍}a1|n	-0.08616462
-4.222326	筑}zh|u2	-0.08616463
-4.222326	挣}zh|e1|ng	-0.08616462
-4.222326	义}d|e1|ng	-0.08616462
-3.921296	徵}zh|e1|ng	-0.08616463
-4.222326	郁}v4	-0.08616462
-3.921296	胁}x|ie2	-0.3871946
-4.222326	食}sh|ii5	-0.08616462
-3.921296	捐}j|va1|n	-0.2111034
-4.222326	娃}ua2	-0.08616461
-4.222326	娃}ua5	-0.08616462
-4.222326	量}l|ia2|ng	-0.08616462
-4.222326	恙}ia4|ng	-0.08616462
-4.222326	肉}r|u4	-0.08616462
-4.222326	秽}h|uei4	-0.08616462
-4.222326	丧}s|a4|ng	-0.08616462
-4.222326	埭}d|ai4	-0.08616462
-4.222326	潘}p|a1|n	-0.08616462
-4.222326	合}g|e3	-0.08616462
-4.222326	展}zh|a5|n	-0.08616462
-4.222326	剥}b|ao1	-0.08616462
-4.222326	沛}p|ei4	-0.08616462
-4.222326	窜}c|ua4|n	-0.08616462
-4.222326	沙}sh|a4	-0.08616462
-4.222326	弥}m|i2	-0.08616462
-4.222326	研}ia4|n	-0.08616462
-3.921296	邪}x|ie2	-0.08616462
-4.222326	纲}g|a1|ng	-0.08616462
-4.222326	句}z|u2	-0.08616462
-3.921296	丧}s|a1|ng	-0.08616462
-4.222326	颍}i3|ng	-0.08616462
-4.222326	渤}b|o2	-0.08616462
-3.921296	稻}d|ao4	-0.3871946
-4.222326	刺}c|ii4	-0.08616462
-4.222326	缎}d|ua4|n	-0.08616462
-4.222326	榻}t|a4	-0.08616462
-4.222326	萎}uei3|m	-0.08616463
-4.222326	靡}i3	-0.08616463
-4.222326	道}d|ao5	-0.08616462
-4.222326	糟}z|ao1|g	-0.08616463
-4.222326	糕}ao1	-0.08616462
-4.222326	镰}l|ia2|n	-0.08616462
-4.222326	赈}zh|e4|n	-0.08616463
-4.222326	玩}ua2|n	-0.08616463
-4.222326	逾}v2	-0.08616462
-4.222326	粥}v4	-0.08616462
-4.222326	儿}r|e2|n	-0.08616462
-4.222326	魏}uei4	-0.08616462
-4.222326	校}j|iao4	-0.08616461
-4.222326	锅}g|uo1	-0.08616462
-4.222326	淑}sh|u2	-0.08616462
-4.222326	钴}g|u3	-0.08616462
-4.222326	丢}d|iu1	-0.08616462
-4.222326	驭}v4	-0.08616462
-4.222326	皓}h|ao4	-0.08616462
-4.222326	骨}g|u2	-0.08616462
-3.921296	旁}p|a2|ng	-0.08616462
-4.222326	缉}q|i1	-0.08616462
-4.222326	锤}ch|uei2	-0.08616462
-4.222326	估}j|ia1	-0.08616462
-4.222326	熬}ao2	-0.08616462
-3.921296	卿}q|i1|ng	-0.3871946
-4.222326	罢}b|a4	-0.08616462
-4.222326	惊}l|ia2|ng	-0.08616462
-3.745205	勃}b|o2	-0.2622559
-3.921296	贤}x|ia2|n	-0.3871946
-4.222326	薄}b	-0.08616463
-4.222326	膜}ao2|m|o4	-0.08616462
-4.222326	得}d|i4	-0.08616462
-4.222326	挽}ua3|n	-0.08616463
-4.222326	罐}g|ua1|n	-0.08616462
-4.222326	陪}p|ei2	-0.08616462
-4.222326	撵}n|ia3|n	-0.08616462
-4.222326	菱}l|e2|ng	-0.08616462
-4.222326	狼}l|a2|ng	-0.08616461
-4.222326	狈}b|ei4	-0.08616462
-4.222326	癌}ai2	-0.08616462
-4.222326	袖}x|iu4	-0.08616462
-4.222326	押}ia2	-0.08616462
-4.222326	钙}g|ai4	-0.08616462
-3.921296	喋}d|ie2	-0.08616463
-4.222326	毅}g|ua1|ng	-0.08616462
-4.222326	豁}h|e4	-0.08616463
-4.222326	尹}i3|n	-0.08616462
-4.222326	帽}m|ao4	-0.08616462
-4.222326	圳}zh|e4|n	-0.08616462
-3.921296	畏}uei4	-0.3871946
-4.222326	炒}ch|ao3	-0.08616461
-4.222326	虞}v2	-0.08616462
-4.222326	综}z|o1|ng	-0.08616462
-3.921296	狒}f|ei4	-0.08616462
-4.222326	吧}b|a5	-0.08616462
-3.921296	蹈}d|ao3	-0.3871946
-4.222326	沏}q|v1	-0.08616462
-4.222326	颗}k|e1	-0.08616462
-4.222326	土}d|u4	-0.08616462
-3.921296	撒}s|a3	-0.08616463
-3.921296	曾}c|e2|ng	-0.2622559
-4.222326	陌}m|o4	-0.08616462
-4.222326	茂}m|ao4	-0.08616461
-4.222326	岂}k|ai3	-0.08616462
-4.222326	渭}uei4	-0.08616462
-4.222326	仙}x|ia1|n	-0.08616462
-3.921296	婚}h|ue1|n	-0.3871946
-3.921296	擦}c|a1	-0.3871946
-4.222326	郁|郁}v4	-0.08616462
-4.222326	璇}x|va2|n	-0.08616462
-4.222326	愉}v2	-0.08616463
-4.222326	末}m|o4	-0.08616462
-4.222326	贾}j|ia3	-0.08616462
-3.921296	豫}v4	-0.3871946
-4.222326	混}h|ue2|n	-0.08616462
-4.222326	仍}r|e2|ng	-0.08616462
-4.222326	缕}l|v3	-0.08616462
-3.921296	妈}m|a1	-0.08616462
-4.222326	芳}f|a1|ng	-0.08616462
-3.921296	匆}c|o1|ng	-0.08616462
-4.222326	芯}x|i4|n	-0.08616462
-4.222326	睡}sh|uei4	-0.08616462
-4.222326	柯}k|e1	-0.08616462
-3.921296	颜}ia2|n	-0.08616462
-4.222326	和}h|uo5	-0.08616462
-4.222326	锚}m|ao2	-0.08616462
-4.222326	绕}r|ao3	-0.08616462
-4.222326	傅}f|u4	-0.08616462
-4.222326	宇}v3	-0.08616461
-4.222326	宙}zh|ou4	-0.08616462
-3.921296	块}k|uai4	-0.3871946
-4.222326	艘}s|ao1	-0.08616462
-4.222326	铲}ch|a3|n	-0.08616462
-4.222326	睛}j|i5|ng	-0.08616462
-4.222326	含}h|a4|n	-0.08616462
-4.222326	蓟}j|i4	-0.08616462
-4.222326	抛}p|ao1	-0.08616461
-4.222326	催}c|uei1	-0.08616461
-4.222326	为}uei5	-0.08616462
-4.222326	暧}ai4	-0.08616463
-4.222326	笼}l|o2|ng	-0.08616462
-4.222326	掷}zh|ii1	-0.08616462
-3.921296	扎}zh|a1	-0.3871946
-4.222326	兆}zh|ao4	-0.08616462
-4.222326	鳖}b|ie1	-0.08616462
-4.222326	绑}b|a3|ng	-0.08616462
-4.222326	迄}q|i4	-0.08616463
-4.222326	抹}m|o3	-0.08616461
-4.222326	菘}s|o1|ng	-0.08616462
-4.222326	耶}x|ie2	-0.08616462
-4.222326	桃}t|ao2	-0.08616462
-4.222326	参}s|a1|n	-0.08616462
-4.222326	传}t|o2|ng	-0.08616462
-4.222326	抑}p|ia2|n	-0.08616462
-4.222326	踊}io3|ng	-0.08616462
-4.222326	缪}m|iu4	-0.08616462
-4.222326	讼}s|o4|ng	-0.08616461
-4.222326	杆}g|a1|n	-0.08616462
-4.222326	纭}v2|n	-0.08616462
-4.222326	蕴}v4|n	-0.08616462
-4.222326	赵}zh|ao4	-0.08616462
-4.222326	洙}sh|u1	-0.08616462
-4.222326	磨}m|o2	-0.08616463
-4.222326	且}q|v4	-0.08616462
-4.222326	格}g|e1	-0.08616462
-4.222326	饰}sh|ii4	-0.08616462
-4.222326	拉}l|a2	-0.08616462
-4.222326	场}ch|a2|ng	-0.08616462
-4.222326	曼}ua4|n	-0.08616462
-4.222326	陷}x|va4|n	-0.08616462
-4.222326	炮}p|ao2	-0.08616462
-4.222326	逞}ch|e3|ng	-0.08616462
-4.222326	乡}x|ia3|ng	-0.08616462
-3.921296	醒}x|i3|ng	-0.3871946
-4.222326	琳}l|i2|n	-0.08616462
-4.222326	栽}z|ai1	-0.08616463
-4.222326	醉}z|uei4	-0.08616462
-4.222326	豆}d|ou4	-0.08616462
-3.745205	甸}d|ia4|n	-0.2622559
-3.921296	忿}f|e4|n	-0.08616463
-4.222326	郝}h|e4	-0.08616462
-4.222326	帼}g|uo2	-0.08616462
-4.222326	祺}q|i2	-0.08616462
-3.921296	译}i4	-0.3871946
-4.222326	钩}g|ou1	-0.08616462
-4.222326	蝣}iou2	-0.08616462
-4.222326	去}q|v5	-0.08616462
-4.222326	冒}m|ao4	-0.08616462
-4.222326	昔}x|i1	-0.08616462
-4.222326	跌}d|ie2	-0.08616462
-4.222326	差}ch|a4	-0.08616462
-4.222326	哪}n|e2	-0.08616462
-4.222326	辟}b|i4	-0.08616462
-4.222326	查}zh|a1	-0.08616462
-4.222326	孕}v4|n	-0.08616462
-4.222326	魅}m|ei4	-0.08616462
-4.222326	佟}t|o2|ng	-0.08616462
-4.222326	炔}g|uei4	-0.08616462
-4.222326	嘉}j|ia1	-0.08616462
-4.222326	兄}x|io1|ng	-0.08616463
-4.222326	舶}b|o2	-0.08616462
-3.921296	若}r|uo4	-0.08616463
-4.222326	暨}j|i4	-0.08616462
-4.222326	候}h|ou5	-0.08616462
-4.222326	刘}l|iu2	-0.08616462
-4.222326	兢}j|i1|ng	-0.08616462
-4.222326	雅}ia1	-0.08616462
-4.222326	滕}t|e2|ng	-0.08616462
-4.222326	异|议}i4	-0.08616462
-4.222326	鑫}x|i1|n	-0.08616462
-4.222326	汪}ua1|ng	-0.08616462
-4.222326	屹}i4	-0.08616463
-3.921296	棉}m|ia2|n	-0.2622559
-4.222326	楞}l|e2|ng	-0.08616462
-4.222326	栅}zh|a4	-0.08616462
-4.222326	穿}ch|ua4|n	-0.08616462
-4.222326	轩}x|va1|n	-0.08616462
-4.222326	棍}g|ue4|n	-0.08616462
-4.222326	矩}j|v3	-0.08616462
-4.222326	沁}q|i4|n	-0.08616462
-3.921296	栩}x|v3	-0.08616463
-4.222326	训}x|v5|n	-0.08616462
-4.222326	佐}z|uo3	-0.08616462
-3.921296	雕}d|iao1	-0.2622559
-4.222326	洞}t|o2|ng	-0.08616462
-4.222326	趁}ch|e4|n	-0.08616462
-4.222326	红}h|o1|ng	-0.08616462
-4.222326	杠}g|a4|ng	-0.08616462
-3.921296	愈}v4	-0.08616462
-4.222326	秤}p|i2|ng	-0.08616462
-4.222326	扔}r|e2|ng	-0.08616462
-4.222326	角}j|ve2	-0.08616462
-4.222326	甜}t|ia2|n	-0.08616463
-4.222326	撑}ch|e5|ng	-0.08616462
-4.222326	侦}zh|e1|ng	-0.08616462
-4.222326	拢}l|o2|ng	-0.08616462
-4.222326	愚}v2	-0.08616462
-4.222326	跛}b|i4	-0.08616463
-4.222326	亨}h|e1|ng	-0.08616462
-4.222326	究}j|iu4	-0.08616462
-4.222326	旭}x|v4	-0.08616462
-4.222326	芭}b|a1	-0.08616463
-4.222326	疃}j|ia1	-0.08616462
-4.222326	听}t|i4|ng	-0.08616462
-4.222326	溢}i4	-0.08616462
-4.222326	络}l|uo4	-0.08616462
-4.222326	巫}u1	-0.08616462
-3.921296	鹅}e2	-0.3871946
-4.222326	涩}s|e4	-0.08616462
-4.222326	弦}x|ia2|n	-0.08616462
-4.222326	爵}j|ve2	-0.08616462
-4.222326	便}p	-0.08616463
-4.222326	宜}ia2|n|i5	-0.08616462
-4.222326	窄}z|e2	-0.08616462
-4.222326	逮}d|ai3	-0.08616462
-4.222326	脉}m|ai4	-0.08616462
-4.222326	怎}z|e3	-0.08616463
-4.222326	刷}sh|ua4	-0.08616462
-4.222326	垂}ch|uei2	-0.08616463
-4.222326	差}ch|ai1	-0.08616462
-4.222326	格}g|e5	-0.08616462
-4.222326	潭}t|a2|n	-0.08616462
-4.222326	黔}q|ia2|n	-0.08616462
-4.222326	稷}j|i4	-0.08616462
-4.222326	坑}k|e1|ng	-0.08616462
-4.222326	费}f|ei3	-0.08616462
-4.222326	沾}zh|a1|n	-0.08616462
-4.222326	瘦}sh|ou4	-0.08616462
-4.222326	碰}p|e4|ng	-0.08616462
-4.222326	龚}g|o1|ng	-0.08616462
-4.222326	邸}d|i3	-0.08616462
-4.222326	鞋}x|ie2	-0.08616462
-4.222326	埔}p|u3	-0.08616462
-3.745205	寨}zh|ai4	-0.5632859
-4.222326	惕}t|i4	-0.08616462
-4.222326	慷}k|a1|ng	-0.08616462
-4.222326	弛}ch|ii2	-0.08616462
-4.222326	俭}j|ia3|n	-0.08616462
-4.222326	皖}h|ua3|n	-0.08616462
-4.222326	闸}zh|a2	-0.08616462
-4.222326	枝}q|i2	-0.08616462
-4.222326	镍}n|ie4	-0.08616462
-3.921296	梗}g|e3|ng	-0.3871946
-4.222326	宾}b|i4|n	-0.08616462
-4.222326	乞}q|i3	-0.08616462
-4.222326	淤}v1	-0.08616462
-4.222326	挑}t|iao1	-0.08616462
-4.222326	裔}i4	-0.08616462
-4.222326	臂}b|ei4	-0.08616462
-4.222326	般}b|a1|n	-0.08616462
-4.222326	摈}b|i4|n	-0.08616462
-4.222326	摩}m|o2	-0.08616462
-4.222326	聋}l|o2|ng	-0.08616462
-4.222326	腔}q|ia1|ng	-0.08616462
-4.222326	磨}m|o5	-0.08616462
-4.222326	毅}i4	-0.08616463
-4.222326	忌}j|i4	-0.08616462
-4.222326	啃}k|e4|n	-0.08616462
-3.921296	佼}j|iao3	-0.08616462
-3.921296	惜}x|i1	-0.3871946
-4.222326	沪}h|u4	-0.08616462
-4.222326	祭}j	-0.08616463
-4.222326	祀}i4|s|ii4	-0.08616462
-4.222326	邬}u1	-0.08616462
-4.222326	杯}b|ei1	-0.08616462
-4.222326	勉}m|ia3|n	-0.08616462
-4.222326	栓}sh|ua1|n	-0.08616462
-4.222326	缜}zh|e3|n	-0.08616462
-4.222326	喂}uei4	-0.08616462
-4.222326	蒋}j|ia3|ng	-0.08616462
-3.921296	逊}s|ue4|n	-0.08616462
-4.222326	钻}z|ua4|n	-0.08616462
-4.222326	酚}f|e1|n	-0.08616462
-4.222326	乃}ai3	-0.08616462
-4.222326	砍}k|a3|n	-0.08616462
-4.222326	濒}p|i2|n	-0.08616462
-4.222326	漂}p|i3	-0.08616462
-4.222326	咎}j|iu4	-0.08616462
-4.222326	徘}p	-0.08616463
-4.222326	徊}ai2|h|uai2	-0.08616462
-4.222326	琢}zh|uo2	-0.08616462
-4.222326	湛}zh|a4|n	-0.08616462
-4.222326	仔}z|ai3	-0.08616462
-4.222326	薄}b|o4	-0.08616462
-4.222326	咽}ia1|n	-0.08616463
-4.222326	暇}x|ia4	-0.08616462
-4.222326	琴}q|i2|n	-0.08616462
-4.222326	獒}ao2	-0.08616462
-4.222326	熄}x|i1	-0.08616463
-4.222326	隋}s|uei2	-0.08616462
-4.222326	茧}j|ia3|n	-0.08616462
-4.222326	砸}z|a2	-0.08616463
-4.222326	脯}f|u3	-0.08616462
-4.222326	机}j|i3	-0.08616462
-3.921296	吁}x|v1	-0.08616462
-4.222326	景}i3|ng	-0.08616462
-4.222326	徐}x|v2	-0.08616462
-4.222326	铸}zh|u4	-0.08616462
-4.222326	盐}ia4|n	-0.08616462
-4.222326	佛}f|o2	-0.08616462
-4.222326	瘠}j|i2	-0.08616462
-4.222326	滇}d|ia1|n	-0.08616462
-4.222326	冯}p|i2|ng	-0.08616462
-4.222326	搁}g|e2	-0.08616463
-4.222326	浅}j|ia1|n	-0.08616462
-4.222326	唐}t|a2|ng	-0.08616462
-4.222326	哈}h|a4	-0.08616462
-4.222326	梅}m|ei2	-0.08616462
-4.222326	葛}g|e3	-0.08616462
-4.222326	思}s|ii5	-0.08616462
-4.222326	唔}u2	-0.08616462
-4.222326	理}l|i5	-0.08616462
-4.222326	剖}p|ou3	-0.08616463
-4.222326	疼}t|e2|ng	-0.08616463
-4.222326	洗}x|ia3|n	-0.08616462
-4.222326	琥}h	-0.08616463
-4.222326	珀}u3|p|o4	-0.08616462
-3.921296	择}z|e2	-0.3871946
-4.222326	汝}r|u3	-0.08616462
-4.222326	赴}d|ai1	-0.08616462
-4.222326	鼻}b|i2	-0.08616462
-4.222326	叔}sh|u2	-0.08616462
-4.222326	顷}q|i1|ng	-0.08616463
-4.222326	烯}x|i1	-0.08616462
-4.222326	拎}l|i2|ng	-0.08616462
-4.222326	耶}i1	-0.08616462
-4.222326	杼}zh|u4	-0.08616462
-4.222326	拨}f|a1	-0.08616462
-4.222326	眠}m|ia2|n	-0.08616463
-4.222326	沮}j|v1	-0.08616463
-4.222326	嗯}e3|n	-0.08616462
-4.222326	叉}ch|a1	-0.08616462
-4.222326	硅}g|uei1	-0.08616462
-4.222326	花}h|ua5	-0.08616462
-4.222326	枝}zh|ii1	-0.08616462
-4.222326	惯}g|ua1|n	-0.08616462
-4.222326	勒}l|e1	-0.08616462
-4.222326	涛}t|ao1	-0.08616462
-4.222326	昨}z|uo2	-0.08616462
-4.222326	寥}l|iao2	-0.08616462
-4.222326	少}sh|ao5	-0.08616462
-4.222326	脏}z|a1|ng	-0.08616463
-3.921296	兮}x|i1	-0.08616462
-4.222326	裹}g|uo3	-0.08616463
-4.222326	釉}iou4	-0.08616462
-4.222326	侧}c|e4	-0.08616462
-4.222326	褪}t|ue4|n	-0.08616462
-4.222326	朵}d|uo3	-0.08616462
-4.222326	挝}g|uo1	-0.08616462
-4.222326	腺}x|ia4|n	-0.08616462
-4.222326	易|易}i4	-0.08616462
-4.222326	孟}m|e4|ng	-0.08616462
-4.222326	迎}i4|ng	-0.08616462
-4.222326	拍}p|o4	-0.08616462

\2-grams:
-3.172442	<s> 破}p|o4	-0.03539937
-3.809195	<s> 坏}h|uai4	-0.03539936
-3.053863	<s> 装}zh|ua1|ng	-0.03539938
-4.304202	<s> 箱}x|ia1|ng	-0.03539938
